{"info": {"optimiser": "Adam", "learning_rate": 0.0010000000474974513}, "layers": {"input_1": {"name": "input_1", "type": "InputLayer", "batch_shape": [null, 5], "outbound_layers": ["dense"]}, "dense": {"name": "dense", "type": "Dense", "inbound_layers": "input_1", "inbound_shape": [null, 5], "units": 128, "weights": [[0.0025939838960766792, 0.09947748482227325, -0.008111092261970043, 0.06084633246064186, 0.11791051179170609, 0.1743120700120926, -0.039844103157520294, 0.005576054099947214, -0.12416283786296844, 0.09128798544406891, 0.04308771714568138, -0.08617711812257767, 3.4790187783073634e-05, 0.2527312934398651, 0.12574638426303864, -0.17963172495365143, 0.09834825247526169, -0.016369370743632317, -4.5755594328511506e-05, 0.004354299046099186, 0.024583175778388977, 0.21916647255420685, 0.10210982710123062, 0.12656019628047943, -0.1429620236158371, 0.039659950882196426, 0.0018808882450684905, -0.08231519162654877, 0.19844333827495575, 7.154480408644304e-05, -0.004677264019846916, 1.5021739272924606e-05, -0.06004086881875992, 0.00020837399642914534, 0.1706579327583313, -0.06066913157701492, 0.07094253599643707, -0.021595587953925133, 0.0001696710824035108, -0.02265486679971218, -0.08248576521873474, 0.14465320110321045, -0.02030772715806961, 7.780891610309482e-05, -0.0023663919419050217, -0.12610988318920135, -0.09656333178281784, -0.06582429260015488, 0.06558278203010559, 0.007719141896814108, -0.17046184837818146, 0.07303712517023087, -0.003884631674736738, 0.14048223197460175, 0.0005496336962096393, 2.792910709104035e-05, 1.2400661034916993e-05, 0.003101514419540763, -1.8944627299788408e-05, -0.2655601501464844, -0.11110249161720276, 0.08520247042179108, -0.1262446790933609, -0.0008301487541757524, 0.18460963666439056, -0.011769285425543785, 0.23311707377433777, -0.23907451331615448, -0.016610020771622658, 0.1466868370771408, -0.011629695072770119, -0.00020097970264032483, 0.10298914462327957, -0.06278258562088013, -0.000179471040610224, -0.00017878913786262274, -0.10217206925153732, -0.17296820878982544, -2.8075028239982203e-06, 0.05938982591032982, 0.0687030553817749, 0.13461972773075104, -6.813043000875041e-05, 0.09307245165109634, 0.19648043811321259, 0.15828759968280792, 0.09000968188047409, 0.10935013741254807, -0.00017630333604756743, -0.11790085583925247, -0.036979276686906815, 0.10430094599723816, -1.67698017321527e-05, 0.1931801587343216, -0.2740391492843628, 0.03042207658290863, 8.536214409105014e-06, 0.19374307990074158, 5.162232628208585e-05, 0.05953700467944145, 0.1672995686531067, 0.1165536493062973, 0.23782600462436676, -2.8450311219785362e-05, 0.27714887261390686, 5.0111721066059545e-05, 0.017918244004249573, 0.0001018801995087415, -0.15709765255451202, -0.1443878710269928, -2.149145984731149e-05, -0.08686769753694534, 0.09672442078590393, 0.025390613824129105, 0.15490037202835083, 0.24719548225402832, 2.1259163986542262e-05, -0.1903190016746521, -1.0621294677548576e-05, -0.21228960156440735, 0.13083578646183014, 3.2954508242255542e-06, 3.8156511436682194e-05, 0.19341358542442322, -0.1230415478348732, 0.15053890645503998, -0.18805792927742004, 0.24582688510417938], [-0.05591580644249916, -0.07607130706310272, 0.12232451140880585, -0.046114061027765274, -0.10093722492456436, -0.0940236747264862, -0.0729258581995964, -0.007084297016263008, 0.03432798385620117, -0.025217605754733086, -0.05194194242358208, 0.20997001230716705, -3.116857260465622e-05, -0.25388970971107483, -0.12598097324371338, 0.04562201723456383, -0.08174518495798111, 0.2607731521129608, 4.422152051120065e-05, -0.0013993741013109684, 0.01879710704088211, -0.20890511572360992, -0.039809420704841614, -0.15639276802539825, -0.11084197461605072, -0.0297005083411932, -0.002946658292785287, 0.11941807717084885, -0.17242351174354553, 3.830930836556945e-06, -0.0005197288701310754, -4.8991540097631514e-05, 0.17754171788692474, -9.349849278805777e-05, -0.10784124583005905, -0.023031696677207947, 0.011393185704946518, -0.007414782885462046, -0.000129447114886716, 0.011265872046351433, 0.19343654811382294, -0.06373225152492523, 0.02952396124601364, -5.894219793844968e-05, 0.0008236772264353931, 0.07842298597097397, 0.07234084606170654, 0.034775592386722565, -0.17660033702850342, -0.0060105156153440475, 0.08670651167631149, -0.03954092040657997, 0.0019692827481776476, -0.14012004435062408, 0.002646534238010645, 1.097827589546796e-05, 4.686755346483551e-06, -0.002240312285721302, 1.69626855495153e-05, 0.19022269546985626, 0.10391271114349365, -0.09511080384254456, 0.2331085205078125, 0.0019605159759521484, -0.19411388039588928, 0.17973168194293976, -0.17181603610515594, 0.2082955688238144, 0.013699259608983994, -0.12306682765483856, 0.0035492724273353815, 0.00010734717943705618, -0.09268073737621307, 0.049095530062913895, 0.00012886946205981076, 0.0020781371276825666, 0.09346356987953186, 0.12630484998226166, 1.0175011993851513e-05, -0.15980654954910278, 0.07829691469669342, -0.18863113224506378, 7.540309161413461e-05, -0.0850575640797615, -0.10524686425924301, -0.10967237502336502, 0.05853335186839104, -0.07198361307382584, 0.00011591523798415437, 0.10812228918075562, 0.030383702367544174, -0.06956621259450912, -3.623749080361449e-06, -0.12315760552883148, 0.2283199280500412, -0.03513793274760246, 2.1189338440308347e-05, -0.16258364915847778, -5.384624455473386e-05, -0.056771788746118546, -0.08007603138685226, -0.1298476904630661, -0.16097170114517212, 2.575232065282762e-05, -0.25064682960510254, -6.578845204785466e-05, 0.005965718999505043, -4.4026211980963126e-05, 0.1516033262014389, 0.16315975785255432, -1.899543690342398e-06, 0.0028456978034228086, -0.0834633931517601, -0.10945995897054672, -0.04428751394152641, -0.17180544137954712, 1.998628613364417e-05, 0.14374573528766632, -1.6619253074168228e-05, -0.09783410280942917, -0.15828479826450348, 8.37729294289602e-06, 9.693717402114999e-06, -0.20845313370227814, 0.071907177567482, -0.10971071571111679, -0.1577957421541214, -0.17773282527923584], [0.027186591178178787, 0.03973321244120598, -0.047961991280317307, 0.0372125618159771, 0.056220851838588715, 0.15652160346508026, 0.10648045688867569, 0.0013849358074367046, -0.0597558319568634, 0.24635538458824158, 0.017430530861020088, -0.05151420086622238, -6.661441602773266e-07, -0.005403807386755943, 0.10570865869522095, -0.026542896404862404, 0.04333390295505524, -0.08160917460918427, 1.917086774483323e-05, -0.010242132470011711, 0.015545064583420753, 0.021519113332033157, 0.09788335859775543, 0.002472929423674941, 0.03646282106637955, 0.0018878660630434752, 5.341050564311445e-05, -0.05695072561502457, -0.1375083178281784, -0.00013683341967407614, 0.006587219424545765, -1.2915755178255495e-05, -0.07785996794700623, 1.7441119780414738e-05, -0.23849783837795258, -0.037448808550834656, 0.021083680912852287, 0.24965469539165497, 0.00015759756206534803, -0.0181872621178627, -0.04833853617310524, 0.06435281038284302, -0.02509569749236107, 5.5809359764680266e-05, 0.0018070648657158017, -0.027820145711302757, -0.05390574410557747, -0.01569543406367302, -0.005657647270709276, 0.0008003859547898173, -0.065189428627491, 0.036866821348667145, 0.0028625146951526403, 0.18572327494621277, -0.0031316818203777075, -8.35257196740713e-06, -2.179955117753707e-05, 0.002002411987632513, 2.329699600522872e-05, -0.10921172797679901, -0.055772826075553894, -0.13277094066143036, -0.050641708076000214, 0.0005414549959823489, -0.1350298821926117, -0.03915999084711075, 0.08171550929546356, -0.09415161609649658, -0.014725259505212307, 0.3520192801952362, 0.22727982699871063, 0.00032470410224050283, 0.05825108662247658, -0.024889277294278145, -8.712713315617293e-05, 0.007002985570579767, -0.0638030618429184, -0.06368953734636307, 1.8849124217013014e-07, 0.06870031356811523, -0.05919218808412552, -0.19450487196445465, -5.0525355618447065e-05, 0.04689284414052963, 0.17058570683002472, 0.06537943333387375, 0.18216553330421448, 0.05404765531420708, -0.00010773175017675385, -0.040646716952323914, -0.0200975239276886, 0.04153754189610481, 2.3504049750044942e-05, 0.25068649649620056, -0.07614492624998093, 0.02042110450565815, -0.00013045556261204183, 0.03870972618460655, -1.1848300346173346e-05, 0.024470455944538116, 0.12318024039268494, 0.04208339378237724, -0.07924593240022659, -7.948667189339176e-06, 0.12050218880176544, -2.48076394200325e-05, 0.0069260853342711926, -1.7913638657773845e-05, -0.06307224184274673, -0.07017765194177628, -2.1991567336954176e-05, -0.04416656494140625, 0.04548007994890213, -0.0006958594312891364, 0.06177261099219322, 0.26333779096603394, 7.299663593585137e-06, -0.06574957072734833, -4.2378025682410225e-05, -0.0811302661895752, 0.09992769360542297, -2.361268525419291e-05, 1.0300945177732501e-05, 0.1756410002708435, -0.04519234225153923, 0.061039604246616364, -0.013483516871929169, 0.09308841079473495], [0.05584748834371567, 0.000488627643790096, -0.02374645136296749, -0.003001411212608218, 0.008360909298062325, -0.052808284759521484, 0.026420723646879196, -0.005033290944993496, 0.09272639453411102, 0.08580747991800308, 0.11760584264993668, -0.024224188178777695, -3.772608033614233e-05, 0.0055074323900043964, -0.05919887498021126, 0.05787360668182373, -0.005002525635063648, -0.08357300609350204, -6.293835758697242e-05, -0.01503711100667715, 0.0045285578817129135, -0.06014271453022957, -0.06305728107690811, 0.013664651662111282, 0.03748561441898346, -0.05859595909714699, 0.0019528055563569069, 0.04686317592859268, 0.12277323007583618, 0.000261151697486639, -0.014502229169011116, -7.938724593259394e-05, 0.019406888633966446, 6.885995389893651e-05, -0.0009366291924379766, -0.02876986376941204, 0.09414811432361603, -0.052574094384908676, -6.28489869995974e-05, 0.008950923569500446, -0.09152313321828842, 0.03034709021449089, 0.01770062744617462, -2.7063118977821432e-05, 0.003964332863688469, 0.04304676875472069, 0.014630255289375782, 0.03909590095281601, -0.10545334219932556, -0.0075224777683615685, 0.024193400517106056, 0.005562575533986092, 0.002126669278368354, 0.07724114507436752, 0.0014707976952195168, 3.5837416362483054e-05, 7.119731890270486e-05, 0.0006470617954619229, -2.5814153559622355e-05, -0.1607295423746109, 0.12888625264167786, 0.10748271644115448, -0.05436381325125694, -0.003950780723243952, -0.0912729874253273, 0.0670664831995964, -0.04076747968792915, 0.038207974284887314, -5.385163603932597e-05, -0.008510987274348736, 0.12695489823818207, -0.0015481212176382542, -0.050299271941185, 0.01391192153096199, 2.635703276610002e-05, -0.0020386013202369213, 0.010001415386795998, -0.03810948505997658, 1.19645719678374e-05, 0.038206469267606735, -0.05220026895403862, 0.004353508818894625, 0.00010992638272000477, 0.017464280128479004, 0.02826017513871193, 0.005752619355916977, 0.0841713473200798, 0.0012522313045337796, -2.8319356715655886e-05, 0.0475689172744751, 0.0037477381993085146, -0.0034173631574958563, -1.2482657439250033e-05, -0.0895828977227211, 0.010667464695870876, 0.009803913533687592, -9.58083473960869e-05, 0.06643250584602356, 4.9422442316426896e-06, 0.0056002079509198666, -0.04688283056020737, -0.041863150894641876, -0.04300553724169731, 3.639405622379854e-05, 0.023818356916308403, -1.9959750716225244e-05, -0.04159306362271309, -3.393351289560087e-05, -0.08522336930036545, -0.091816246509552, -2.553587000875268e-05, -0.09651439636945724, -0.03222351521253586, 0.03510792553424835, -0.005154014565050602, 0.009523236192762852, -2.250338002340868e-05, 0.011983215808868408, 8.804212484392338e-06, -0.06867270916700363, -0.09799207001924515, -4.041011561639607e-05, -0.00010557429777691141, -0.027488017454743385, -0.08479563146829605, 0.05558175593614578, 0.07789041846990585, 0.02315448224544525], [-0.2840319871902466, 0.19596974551677704, -0.3157039284706116, 0.12359528243541718, 0.2402036190032959, 0.30456581711769104, 0.3022010922431946, 0.005081971641629934, -0.33668944239616394, 0.2273499071598053, -0.3070799708366394, -0.34707847237586975, 2.8903950806125067e-05, 0.35198694467544556, 0.28299540281295776, -0.33299610018730164, 0.20356033742427826, -0.33110135793685913, -1.9367154891369864e-05, -0.0014829824212938547, 0.2714426815509796, 0.3131798505783081, 0.26932084560394287, 0.18287047743797302, -0.265003502368927, -0.23613841831684113, -0.00028874026611447334, -0.3555199205875397, 0.1442360281944275, -9.177737956633791e-05, 0.0019098501652479172, 9.136163043876877e-07, -0.3456244170665741, 0.0002417295181658119, 0.34314465522766113, -0.26232048869132996, 0.21663391590118408, 0.3169226050376892, 0.00023121920821722597, -0.0662904903292656, -0.24912048876285553, 0.3388444781303406, 0.221437007188797, 0.00012284428521525115, -0.0002690674446057528, -0.28251078724861145, -0.20924250781536102, -0.005543814972043037, 0.3431546986103058, 0.009187903255224228, -0.3174646496772766, 0.25058427453041077, 0.002475986024364829, 0.3671841025352478, -0.003158691106364131, 9.124583812081255e-06, 1.5416724636452273e-05, 0.00457779411226511, 2.3262937247636728e-05, -0.16513919830322266, -0.1930466890335083, 0.30573147535324097, -0.26637962460517883, -0.003510309150442481, 0.3141823709011078, -0.3387753367424011, 0.3628745377063751, -0.2230619192123413, -0.03001694567501545, 0.26034048199653625, 0.17939668893814087, 0.0003465640766080469, 0.23453325033187866, -0.12775704264640808, -0.00031028344528749585, 0.004095414653420448, -0.213568776845932, -0.2637951672077179, 7.578491204185411e-05, 0.37985095381736755, -0.3233081102371216, 0.289910227060318, -5.9422338381409645e-05, 0.16706371307373047, 0.3120349943637848, 0.2891441881656647, 0.11763082444667816, 0.19462339580059052, -0.0002756805915851146, -0.2501923143863678, -0.06906485557556152, 0.20223461091518402, 1.376299678668147e-05, 0.2844024896621704, -0.21865035593509674, 0.08144662529230118, -0.0004036750760860741, 0.23642483353614807, 2.5978311896324158e-05, 0.13018307089805603, 0.3543252944946289, -0.2539980411529541, 0.24158991873264313, -2.2200703824637458e-05, -0.019342966377735138, 7.352104876190424e-05, -0.012379862368106842, 0.00011317310418235138, -0.28490808606147766, -0.23768165707588196, 3.966660733567551e-05, -0.18426555395126343, 0.23758673667907715, -0.2839448153972626, 0.36929580569267273, 0.22213862836360931, 1.0312425729352981e-05, -0.2129817008972168, -5.062235868535936e-05, -0.19913235306739807, 0.32112234830856323, -4.4537904614116997e-05, 7.037746399873868e-05, 0.12162145227193832, -0.2676657736301422, 0.3227149248123169, -0.2675878405570984, 0.2846847176551819]], "biases": [0.2816406190395355, -0.17474442720413208, 0.23352906107902527, -0.11848312616348267, -0.22177022695541382, -0.27890896797180176, -0.25446847081184387, -0.0034287155140191317, 0.28344330191612244, -0.28321918845176697, 0.2439291775226593, 0.23639769852161407, -1.903758675325662e-05, -0.2555900812149048, -0.22118143737316132, 0.2913006544113159, -0.19764357805252075, 0.19399267435073853, 2.3967204469954595e-05, 0.003898237831890583, -0.29556500911712646, -0.2297826111316681, -0.2549760341644287, -0.1362539678812027, 0.3059471547603607, 0.26758649945259094, -0.005002988036721945, 0.27166545391082764, -0.20335370302200317, -7.92822174844332e-06, -0.00046602555084973574, 3.211840521544218e-05, 0.22981813549995422, -0.00020681430760305375, -0.28616249561309814, 0.3099239468574524, -0.30573683977127075, -0.2730379104614258, -0.0002349004353163764, 0.05703892558813095, 0.2037041187286377, -0.26325005292892456, -0.2526981830596924, -0.0001240507554030046, 0.000670300389174372, 0.2538587152957916, 0.18621379137039185, -0.010381433181464672, -0.2224418818950653, -0.005616854876279831, 0.2813085615634918, -0.25857841968536377, -0.0009958000155165792, -0.29073116183280945, 0.0004480926145333797, 4.5341994336922653e-07, 2.2125872419564985e-05, -0.005064825993031263, -4.700868157669902e-05, 0.22870975732803345, 0.09460456669330597, -0.31910863518714905, 0.17805014550685883, -0.001433906494639814, -0.23439307510852814, 0.17320767045021057, -0.26154661178588867, 0.16088327765464783, 0.02562849223613739, -0.24737921357154846, -0.26227954030036926, 0.00031558756018057466, -0.18329337239265442, 0.11363765597343445, 0.00021802852279506624, -0.0057710520923137665, 0.18496213853359222, 0.26082074642181396, -1.8481727011021576e-06, -0.2526337206363678, 0.2730958163738251, -0.242092564702034, 6.053656034055166e-05, -0.15444986522197723, -0.2830773591995239, -0.2738044857978821, -0.2505163550376892, -0.17990463972091675, 0.0002633461554069072, 0.20734915137290955, 0.06942983716726303, -0.19249066710472107, -4.047424954478629e-05, -0.22846952080726624, 0.16053526103496552, -0.07828139513731003, 0.0004075352044310421, -0.23433257639408112, -1.3366914572543465e-05, -0.12938885390758514, -0.27634936571121216, 0.3139702081680298, -0.24415020644664764, -6.523212505271658e-06, 0.0582939088344574, -1.1338079275446944e-07, -0.00712520070374012, -9.298148506786674e-05, 0.29237401485443115, 0.2324046641588211, 2.6131710910703987e-05, 0.24762170016765594, -0.21916751563549042, 0.3073138892650604, -0.2620839774608612, -0.2420833259820938, 1.0916739938693354e-06, 0.1817483752965927, 0.00011047584121115506, 0.29115030169487, -0.21425046026706696, 3.569281398085877e-05, -2.2993275706539862e-05, -0.08053462207317352, 0.2985089123249054, -0.2781585454940796, 0.2593832314014435, -0.25351130962371826], "activation": "elu", "outbound_layers": ["dense_1"]}, "dense_1": {"name": "dense_1", "type": "Dense", "inbound_layers": "dense", "inbound_shape": [null, 128], "units": 128, "weights": [[0.2053809016942978, 0.23141340911388397, 0.26763346791267395, 0.01641322299838066, -0.09147601574659348, 0.2582687735557556, -0.2172737717628479, 0.02551131509244442, 0.203278586268425, 0.016482701525092125, 0.22171074151992798, 0.028574155643582344, -0.15993978083133698, -0.1782931685447693, 0.09283491969108582, -0.2002684473991394, 0.01001326460391283, 0.24721412360668182, 0.03074096515774727, -0.05925393104553223, -0.05171135067939758, -0.16801178455352783, -0.06544280052185059, -0.19902414083480835, -0.17256146669387817, 0.21324144303798676, -0.07655956596136093, -0.18368352949619293, -0.3028305172920227, 0.018743006512522697, 0.1393771469593048, -0.07226012647151947, -0.12239809334278107, -0.0033398617524653673, 0.08313661813735962, -0.07246848195791245, 0.27391692996025085, -0.09331930428743362, -0.15060946345329285, -0.12546096742153168, 0.08872140944004059, 0.1161704957485199, 0.2245362251996994, 0.021172592416405678, 0.06861133128404617, -0.29457777738571167, 0.06911221891641617, -0.03536012023687363, -0.08495054394006729, 0.04173092916607857, -0.036774490028619766, 0.09937259554862976, 0.18078424036502838, -0.4948427081108093, 0.025463303551077843, -0.22971421480178833, -0.06186828389763832, -0.01785040833055973, -0.1601777970790863, 0.1421888768672943, -0.185709610581398, 0.03695908188819885, 0.14773507416248322, 0.18773667514324188, 0.1796712577342987, 0.0670984610915184, -0.12582290172576904, -0.04575506970286369, -0.17990753054618835, -0.18800249695777893, -0.19046515226364136, -0.15290603041648865, 0.22803546488285065, -0.1422685831785202, -0.07016174495220184, -0.01844174787402153, -0.1349206417798996, -0.08865657448768616, 0.021981799975037575, -0.05846866965293884, 0.0031677656807005405, -0.10258621722459793, 0.2155584692955017, 0.0054536499083042145, 0.06882883608341217, -0.06908593326807022, -0.15457426011562347, -0.11119292676448822, -0.24594444036483765, -0.004360667895525694, 0.11007680743932724, -0.0867328867316246, 0.19688138365745544, -0.2211078256368637, 0.10477441549301147, -0.06067787855863571, 0.03861427307128906, -0.12340226769447327, 0.10732285678386688, -0.33470338582992554, -0.02010711468756199, -0.05641883239150047, -0.11543886363506317, 0.03656919300556183, 0.03483671322464943, -0.15613329410552979, -0.03567049279808998, 0.010106130503118038, 0.018807943910360336, -0.0759313702583313, -0.2723991274833679, 0.03625734895467758, -0.23430676758289337, 0.03980814293026924, -0.15702728927135468, 0.22495326399803162, -0.025197695940732956, -0.29987338185310364, -0.23153087496757507, -0.06393425166606903, 0.10692595690488815, -0.05270854011178017, 0.2647683918476105, -0.09347142279148102, -0.04450509697198868, -0.03257793188095093, -0.17528565227985382, -0.2852170467376709], [-0.04404862970113754, 0.3380931317806244, -0.11496957391500473, -0.004679277539253235, 0.21874725818634033, -0.11253175139427185, 0.14976143836975098, 0.08124756813049316, 0.20770925283432007, 0.22705936431884766, 0.12893158197402954, 0.24833573400974274, 0.20311827957630157, -0.025039784610271454, -0.13750402629375458, -0.08437670022249222, -0.13885970413684845, 0.17570124566555023, -0.36817219853401184, 0.0542667992413044, -0.28733670711517334, 0.006868110504001379, 0.09681852906942368, 0.012018109671771526, 0.1122158095240593, -0.10996662825345993, -0.048095859587192535, 0.09841060638427734, 0.09017103910446167, -0.0780472457408905, -0.0013671923661604524, -0.07446373999118805, 0.05758245289325714, 0.022658349946141243, 0.22763165831565857, -0.10388737916946411, 0.03189956769347191, 0.008332169614732265, 0.1573159247636795, -0.07163168489933014, 0.13840752840042114, 0.031992536038160324, -0.11404982209205627, 0.35967856645584106, 0.11883030086755753, -0.0566742829978466, 0.040174197405576706, -0.13310296833515167, -0.1557806134223938, -0.20321856439113617, 0.23782843351364136, 0.3541334569454193, 0.1025904193520546, 0.05930830538272858, -0.04867397993803024, -0.10607273876667023, -0.04086078330874443, -0.010336277075111866, 0.1828821450471878, -0.12961339950561523, -0.1766016036272049, -0.019856229424476624, 0.2165440022945404, -0.12608970701694489, -0.1364462822675705, 0.21568650007247925, -0.14067192375659943, -0.001914580469019711, -0.14118967950344086, -0.07657668739557266, 0.2443091869354248, 0.05106659233570099, 0.09432385861873627, -0.1518702507019043, 0.12289350479841232, 0.36989426612854004, -0.21481424570083618, 0.44562700390815735, -0.11267340183258057, -0.015998339280486107, -0.026055630296468735, 0.2470063716173172, 0.05129566043615341, 0.033792320638895035, -0.20799009501934052, -0.10230212658643723, -0.36125752329826355, -0.038541924208402634, 0.015533284284174442, 0.10554514825344086, 0.39958563446998596, 0.10745339840650558, 0.2963906228542328, 0.1321839988231659, 0.09914659708738327, -0.08188831061124802, -0.10663710534572601, 0.22865840792655945, -0.15960370004177094, -0.022067459300160408, 0.11881132423877716, -0.11336415261030197, 0.14467103779315948, 0.2743874192237854, 0.2850717306137085, -0.0055338554084300995, -0.10818270593881607, 0.25975021719932556, 0.08145201206207275, -0.0742836594581604, -0.017709115520119667, -0.08237957954406738, -0.02364901266992092, -0.0027331099845469, -0.1027267798781395, -0.07434742152690887, -0.041444793343544006, 0.014050344005227089, -0.03498518466949463, -0.27413812279701233, 0.144062802195549, 0.16679400205612183, 0.24092963337898254, -0.013195865787565708, 0.07181201875209808, 0.12490520626306534, 0.08935435861349106, -0.152242973446846], [0.2967463731765747, 0.010603354312479496, 0.3013657331466675, -0.19887234270572662, -0.06499628722667694, 0.6105879545211792, 0.09263605624437332, -0.02384536899626255, 0.12414800375699997, 0.0471419058740139, -0.18893106281757355, 0.17292913794517517, -0.040458519011735916, 0.24405056238174438, -0.05304991081357002, 0.19659879803657532, -0.10992047935724258, -0.2344502955675125, 0.11540082097053528, 0.15968550741672516, -0.09803097695112228, -0.21741239726543427, 0.13770735263824463, -0.12402795255184174, 0.006775657180696726, -0.05895218998193741, -0.010863998904824257, -0.03222184255719185, -0.06373025476932526, 0.13070723414421082, -0.016276640817523003, 0.06836389005184174, 0.032662421464920044, 0.599378764629364, -0.2094545066356659, -0.19055505096912384, -0.09538804739713669, -0.014638173393905163, -0.13947048783302307, 0.06953518092632294, -0.2038673758506775, -0.21704323589801788, 0.012755817733705044, 0.023923901841044426, -0.048714909702539444, 0.15298664569854736, -0.19277027249336243, 0.08312330394983292, -0.1280640959739685, -0.18725042045116425, -0.08299751579761505, -0.19536882638931274, -0.07695917040109634, -0.01768185757100582, 0.10784611105918884, -0.15076734125614166, 0.19781146943569183, -0.01712321676313877, -0.05557927116751671, 0.001073335763067007, 0.19740357995033264, -0.0045320698991417885, -0.15832363069057465, -0.20445163547992706, 0.07914301753044128, -0.05343588814139366, 0.09421214461326599, -0.027034757658839226, 0.023828750476241112, -0.12826430797576904, 0.03544778376817703, -0.09214413911104202, 0.14573784172534943, -0.03786033019423485, -0.22880157828330994, 0.09104263037443161, -0.0783495083451271, 0.1327439695596695, -0.00720602972432971, -0.14261648058891296, 0.1713072955608368, 0.09354943037033081, -0.11713546514511108, 0.06923659890890121, 0.03428441658616066, -0.04330039396882057, 0.10238586366176605, -0.11517806351184845, 0.20846453309059143, -0.06657300889492035, -0.023298339918255806, -0.07336007803678513, -0.38072675466537476, -0.1508897989988327, -0.1566743105649948, 0.19248653948307037, 0.09098998457193375, 0.15466216206550598, -0.019411053508520126, -0.2797155976295471, 0.07062724977731705, -0.11543259769678116, -0.1322883516550064, -0.2097199261188507, -0.06586132198572159, -0.16419878602027893, 0.04967384785413742, -0.16912242770195007, -0.1769871562719345, 0.18536606431007385, 0.00690492196008563, 0.013421537354588509, -0.22866615653038025, -0.09748987853527069, -0.019494660198688507, -0.1946396827697754, 0.05991549789905548, 0.3493269383907318, -0.26127737760543823, -0.08466748893260956, -0.01352943480014801, 0.031407665461301804, -0.15791936218738556, 0.08835490792989731, 1.1605738401412964, 0.15857413411140442, -0.06274037808179855, -0.11844611167907715], [0.02638045698404312, -0.10879790037870407, -0.09378249943256378, 0.06523095071315765, 0.33264628052711487, 0.13489528000354767, -0.15109671652317047, 0.14758192002773285, 0.20438089966773987, -0.1353074610233307, 0.2571086585521698, 0.312399685382843, 0.26562178134918213, -0.10812284052371979, -0.10319787263870239, 0.3171561062335968, 0.3188174068927765, -0.07722672075033188, -0.40563079714775085, -0.052555739879608154, 0.06868153810501099, 0.018659353256225586, 0.04075850173830986, 0.38652503490448, 0.11120473593473434, -0.2403194010257721, -0.03351424261927605, 0.046853985637426376, 0.08397988229990005, -0.2011411190032959, -0.05380057170987129, 0.19678011536598206, 0.17071641981601715, 0.09279578179121017, 0.2465740144252777, -0.143536776304245, 0.30097323656082153, 0.022478297352790833, 0.21543878316879272, -0.021783920004963875, 0.1041780635714531, -0.09105172753334045, -0.10095751285552979, 0.5195133686065674, -0.04351966083049774, 0.02945573627948761, -0.2041160762310028, 0.27623602747917175, 0.00045681421761401, 0.2790204584598541, -0.09318298101425171, -0.24071843922138214, 0.0993352010846138, -0.28214728832244873, -0.15611831843852997, 0.15262795984745026, 0.11847325414419174, 0.1689538061618805, 0.1698387861251831, -0.03969278559088707, 0.01784036122262478, 0.11738280206918716, -0.19866353273391724, 0.10757021605968475, -0.02916887030005455, 0.13826192915439606, -1.2086372375488281, -0.06285928934812546, 0.025576338171958923, -0.47980520129203796, 0.23734091222286224, 0.35656318068504333, 0.3653901517391205, -0.05980389937758446, -0.6479268074035645, 0.07653515785932541, -0.13301852345466614, 0.4314153790473938, -0.17201778292655945, 0.23464442789554596, 0.19701261818408966, 0.025814687833189964, 0.14524292945861816, 0.14869193732738495, -0.12084262818098068, -0.012290554121136665, -0.5133424401283264, 0.13635873794555664, 0.01806962490081787, 0.08503052592277527, -0.13975363969802856, -0.30443087220191956, 0.319985568523407, -0.018802765756845474, 0.2613612413406372, 0.13313914835453033, -0.30956315994262695, -0.2940150499343872, -0.3703729212284088, -0.10191740095615387, -0.028068700805306435, 0.33397969603538513, 0.15720653533935547, 0.13058824837207794, -0.058562811464071274, 0.18557193875312805, -0.5180060863494873, 0.17935559153556824, 0.027293281629681587, 0.19709497690200806, 0.3983941972255707, -0.11614467203617096, 0.025376178324222565, 0.20353706181049347, 0.04816161096096039, -0.3100874722003937, 0.17791566252708435, -0.028533168137073517, -0.24417366087436676, 0.37794142961502075, 0.29560109972953796, -0.010653488337993622, -0.07920747250318527, -0.04677816107869148, 0.3965071141719818, 0.10817001760005951, 0.029847266152501106, -0.23258168995380402], [-0.025857750326395035, -0.1650415062904358, 0.16108275949954987, -0.03826063126325607, 0.4710809588432312, 0.3385028839111328, -0.21877481043338776, 0.0734686553478241, 0.11065452545881271, -0.12730476260185242, -0.028946051374077797, 0.12930171191692352, 0.08132744580507278, 0.23686613142490387, 0.008661088533699512, 0.3376942574977875, 0.13232490420341492, 0.03804895281791687, -0.1340743452310562, 0.3958362340927124, -0.09662173688411713, 0.06890770047903061, -0.10568162053823471, 0.057088520377874374, 0.16808098554611206, -0.1635703295469284, -0.11375699192285538, 0.08495666831731796, 0.03947480767965317, -0.08365294337272644, 0.04997970536351204, 0.12097630649805069, 0.029574302956461906, 0.1367974579334259, -0.049470242112874985, -0.021585270762443542, -0.01840798184275627, -0.09786877781152725, 0.1857447624206543, -0.05778979882597923, 0.02526879869401455, 0.1451612263917923, -0.03934388607740402, 0.49371784925460815, -0.09392984211444855, -0.06340188533067703, -0.13823701441287994, 0.22784163057804108, 0.02357609197497368, -0.08390285819768906, 0.04493653029203415, 0.04657536745071411, 0.05759269744157791, 0.2700854241847992, -0.07697572559118271, 0.017032019793987274, 0.02472885698080063, -0.039399899542331696, 0.09976664930582047, -0.1654019057750702, 0.15307869017124176, 0.2635633647441864, 0.1593439280986786, -0.03695747256278992, -0.3672826886177063, -0.23186329007148743, -0.36994943022727966, -0.12837596237659454, 0.03922440856695175, -0.11457931250333786, 0.08864796161651611, 0.3154025077819824, 0.10409442335367203, 0.02462117001414299, -0.25164392590522766, 0.07168474793434143, -0.3426661193370819, 0.42330265045166016, 0.056034110486507416, 0.06786653399467468, -0.011087188497185707, 0.03577399253845215, -0.003085973672568798, -0.08214257657527924, -0.02807340957224369, -0.14813946187496185, -0.22581227123737335, -0.049319665879011154, -0.14813582599163055, 0.190128356218338, -0.0629255473613739, -0.11210276186466217, 0.24339623749256134, 0.009421088732779026, 0.062227554619312286, 0.09921451658010483, -0.2983578145503998, 0.1599494069814682, -0.08744611591100693, -0.16357830166816711, 0.06580036133527756, 0.2003011405467987, -0.01628558710217476, 0.21019089221954346, 0.1343570500612259, -0.05809426307678223, -0.4812736511230469, 0.20826919376850128, 0.004346287343651056, 0.10297220200300217, 0.20546868443489075, -0.19345566630363464, -0.26349931955337524, 0.06744040548801422, -0.04906362295150757, -0.2991008758544922, 0.09635510295629501, 0.005861075595021248, -0.23994901776313782, -0.11510613560676575, 0.012243824079632759, 0.16821126639842987, -0.44398829340934753, -0.3295860290527344, 0.4812107980251312, -0.011201178655028343, 0.18374377489089966, -0.11558294296264648], [0.18881183862686157, -0.14630860090255737, -0.0696222111582756, 0.0983513742685318, -0.13469229638576508, 0.020004823803901672, 0.028516670688986778, -0.2981409728527069, -0.6636740565299988, 0.018647629767656326, -0.3813977539539337, -0.0809841901063919, -0.034267086535692215, 0.016427209600806236, -0.043062880635261536, -0.18651066720485687, -0.40475642681121826, -0.1664990931749344, 0.0872129276394844, 0.5541862845420837, -0.00024958254653029144, 0.25539347529411316, 0.22089114785194397, -0.02162509225308895, 0.2674461901187897, -0.31303608417510986, -0.16130511462688446, 0.15678256750106812, -0.10614381730556488, -0.09988820552825928, -0.15427102148532867, 0.020248858258128166, -0.1913711428642273, 0.09033571928739548, -0.33479681611061096, 0.029562225565314293, 0.24024598300457, -0.14749382436275482, -0.3405991494655609, -0.0020262852776795626, 0.31942513585090637, 0.10806269943714142, 0.01815720647573471, -0.11264833807945251, 0.2055111974477768, 0.18627044558525085, 0.1725313812494278, 0.08925925195217133, -0.027116689831018448, 0.014520861208438873, 0.09649907052516937, 0.24304433166980743, -0.124057836830616, 0.33004230260849, -0.1308629959821701, 0.3027082681655884, 0.001129931421019137, 0.04514099285006523, 0.34904685616493225, -0.10953006148338318, -0.6416244506835938, -0.10620202869176865, 0.4770638048648834, -0.1424332857131958, -0.17695794999599457, -0.7175294756889343, -0.03997752070426941, -0.19323386251926422, 0.18101659417152405, -0.06369099020957947, -0.02212657779455185, -0.18248920142650604, -0.2801628112792969, -0.18644286692142487, -0.1652919352054596, 0.1017528548836708, 0.06605515629053116, -0.033148083835840225, 0.15262764692306519, -0.15382611751556396, -0.15261800587177277, 0.12661296129226685, -0.36634400486946106, -0.057226523756980896, 0.24423249065876007, 0.2758237421512604, 0.011959941126406193, 0.12153751403093338, -0.06871902942657471, 0.10485736280679703, -0.36329492926597595, 0.26395872235298157, 0.27174946665763855, 0.036700550466775894, 0.17162084579467773, 0.1648891717195511, 0.10493916273117065, -0.40447860956192017, 0.14285919070243835, -0.12053174525499344, -0.06640373915433884, 0.016913611441850662, 0.2114342898130417, 0.25475355982780457, -0.14390307664871216, 0.22368597984313965, -0.08516309410333633, 0.08087366074323654, 0.4413345456123352, -0.07269629836082458, 0.34218141436576843, 0.09346563369035721, 0.0964910015463829, -0.0925947055220604, -0.19462178647518158, 0.3354088068008423, -0.044903889298439026, 0.06532406806945801, -0.13960039615631104, 0.17948637902736664, -0.5035661458969116, -0.20792599022388458, -0.09255684167146683, 0.22356173396110535, 0.0749981552362442, 0.12476138025522232, 0.027732955291867256, -0.029093611985445023], [-0.21282467246055603, -0.2382778525352478, -0.0047766584903001785, 0.16936111450195312, -0.20572371780872345, -0.44231531023979187, -0.3325985074043274, -0.0689348503947258, 0.49476128816604614, 0.024767054244875908, 0.14534318447113037, -0.269108384847641, 0.032989367842674255, 0.087025947868824, -0.15939301252365112, -0.08909595012664795, -0.27660250663757324, 0.22326873242855072, 0.06166262552142143, -0.23145505785942078, 0.12354806810617447, 0.22975677251815796, 0.17014853656291962, 0.14380823075771332, 0.011525780893862247, -0.03214524686336517, 0.07428146153688431, 0.21781139075756073, 0.05500715598464012, -0.08899126946926117, 0.052855927497148514, 0.08066733181476593, -0.11375634372234344, -0.2578655779361725, 0.12387138605117798, -0.0239973533898592, 0.004509164951741695, -0.1822328269481659, 0.024009807035326958, -0.26243504881858826, 0.10503695905208588, -0.02278338558971882, -0.021565547212958336, -0.06306370347738266, 0.18927492201328278, 0.001915541011840105, -0.3892366588115692, -0.06241711974143982, -0.12872467935085297, 0.22474665939807892, -0.09371107071638107, 0.1097499281167984, -0.12529151141643524, -0.2362237423658371, 0.03993619978427887, 0.047492124140262604, -0.1801941990852356, 0.2392619550228119, -0.06539339572191238, -0.012872947379946709, -0.1675582230091095, -0.07976645976305008, -0.5138487219810486, 0.0900704562664032, 0.18747608363628387, 0.18269513547420502, 0.020705798640847206, -0.3366011381149292, 0.036927081644535065, -0.06899890303611755, -0.08922971785068512, -0.018018821254372597, -0.047484658658504486, 0.13004787266254425, 0.17909026145935059, -0.13800956308841705, -0.22939500212669373, 0.006613858975470066, 0.1697235405445099, -0.08143490552902222, -0.4152345657348633, 0.09367149323225021, -0.16646014153957367, -0.2072102278470993, 0.14905762672424316, 0.13701029121875763, -0.15232999622821808, -0.0038647956680506468, 0.2154538333415985, -0.0809011161327362, -0.12075913697481155, -0.08233783394098282, 0.4394702613353729, 0.10882589221000671, -0.09124473482370377, 0.3539994955062866, 0.13246765732765198, -0.3314918875694275, -0.14770792424678802, 0.14044180512428284, 0.1086970791220665, -0.16484609246253967, 0.0742550864815712, 0.15794451534748077, 0.19173316657543182, 0.0031651470344513655, 0.03232456371188164, -0.122623972594738, -0.325824111700058, -0.002408115193247795, -0.09576581418514252, 0.015250714495778084, 0.06740371882915497, -0.22133243083953857, -0.11512280255556107, -0.29461926221847534, -0.08620346337556839, -0.12682120501995087, 0.11892898380756378, 0.03377294912934303, -0.10095801204442978, -0.24673455953598022, 0.23236483335494995, 0.17850913107395172, -0.97270667552948, 0.0585966557264328, -0.11277119070291519, 0.011319917626678944], [0.008452050387859344, -0.04806378111243248, -0.0007957280031405389, 0.15175406634807587, -0.02766222320497036, -0.03754148632287979, -0.04085197672247887, 0.0870232954621315, -0.123501718044281, -0.14916126430034637, -0.02234671078622341, 0.15343937277793884, 0.009867576882243156, 0.038934964686632156, 0.19722865521907806, -0.1739400327205658, -0.0434517078101635, 0.03874916583299637, 0.042114295065402985, -0.042667485773563385, 0.03246237710118294, -0.052326396107673645, -0.19377921521663666, 0.17957289516925812, -0.1871621012687683, 0.13415656983852386, 0.0064245108515024185, 0.135410875082016, 0.05709683522582054, -0.3297981023788452, -0.006833018735051155, -0.11249258369207382, -0.11474507302045822, -0.0030483552254736423, -0.17791621387004852, -0.026127107441425323, 0.032821182161569595, 0.11441080272197723, -0.008498798124492168, -0.06347622722387314, -0.46085724234580994, -0.07283814996480942, 0.16513748466968536, -0.1146104484796524, 0.04517345130443573, -0.0009098139707930386, -0.2645402252674103, 0.18334098160266876, -0.11720249801874161, 0.17369012534618378, 0.31386929750442505, -0.04042942076921463, 0.028923898935317993, -0.012375188991427422, -0.31728383898735046, 0.04010265693068504, -0.21718306839466095, -0.05245060473680496, -0.06511931121349335, 0.06220594048500061, 0.08581129461526871, -0.049415428191423416, 0.33297204971313477, -0.037450071424245834, 0.04189474508166313, 0.01774654909968376, 0.01831985078752041, 0.17079401016235352, -0.010165976360440254, 0.008777111768722534, 0.03115229122340679, -0.14440679550170898, 0.2591361403465271, 0.13517512381076813, 0.23875102400779724, -0.03859185799956322, 0.1720271110534668, 0.0033684007357805967, -0.07335718721151352, -0.016976401209831238, 0.05374988913536072, -0.16301405429840088, -0.10394762456417084, -0.026355858892202377, -0.002553812460973859, -0.022547878324985504, -0.008697251789271832, -0.06889351457357407, 0.06360325962305069, 0.017064562067389488, 0.06574389338493347, -0.09495995193719864, -0.07423482835292816, -0.06143493950366974, 0.08911684155464172, -0.033323660492897034, 0.03767861798405647, 0.034535497426986694, -0.0033444841392338276, 0.07752808183431625, 0.07645943015813828, -0.09152483940124512, 0.03202660009264946, 0.34706589579582214, 0.19154348969459534, 0.20037849247455597, 0.20390602946281433, -0.3003978431224823, -0.006302471272647381, -0.04046032205224037, 0.11006824672222137, 0.006912222597748041, 0.005365876015275717, -0.42716455459594727, 0.09824410080909729, -0.04324580356478691, -0.2698127329349518, -0.035136036574840546, -0.013438836671411991, 0.07647062093019485, -0.03145192936062813, 0.020127184689044952, 0.0924607664346695, 0.13568484783172607, -0.01409725658595562, 0.2799316942691803, 0.0645420104265213, -0.00940953753888607], [-0.08816678822040558, 0.17733563482761383, -0.1576053947210312, -0.43863651156425476, -0.052790675312280655, -0.18320469558238983, 0.510219395160675, 0.1414710134267807, -0.47409316897392273, -0.015255240723490715, 0.2991390824317932, 0.8142194151878357, 0.19198904931545258, -0.15885351598262787, 0.27449432015419006, 0.11719180643558502, -0.33094772696495056, 0.3227559030056, -0.3431119918823242, 0.6885464191436768, -0.09995250403881073, -0.32608625292778015, 0.14411237835884094, -0.2448391318321228, -0.34060221910476685, -0.3941938281059265, 0.20732469856739044, -0.30932968854904175, -0.056751541793346405, 0.0795050710439682, -0.07166197896003723, 0.18232150375843048, 0.18126092851161957, -0.01362242829054594, -0.06564606726169586, 0.017986098304390907, -0.03716964274644852, 0.07249339669942856, -0.550473690032959, 0.1473359316587448, -0.4421641528606415, -0.08854390680789948, -0.27464279532432556, 0.21854043006896973, -0.24579541385173798, -0.1667386144399643, 0.0045419842936098576, -0.2238857001066208, 0.1909244954586029, -0.3343786597251892, -0.4074037969112396, 0.13431183993816376, 0.3727489411830902, 0.1474088579416275, -0.10140201449394226, -0.41138955950737, 0.08809944242238998, -0.3667146861553192, -0.3911399245262146, 0.4321259558200836, -0.24731163680553436, 0.22512583434581757, 0.24571457505226135, 0.38908928632736206, -0.07648953050374985, -0.33664193749427795, -0.27496209740638733, -0.07701113820075989, -0.30035629868507385, 0.00949358195066452, 0.07343693822622299, 0.17457552254199982, 0.031650111079216, 0.03761402145028114, -0.1323763132095337, -0.13335534930229187, -0.1806919425725937, 0.14753541350364685, -0.2229205071926117, 0.05346497893333435, 0.12077844142913818, 0.029006347060203552, 0.2854152023792267, -0.1633249670267105, -0.2926657795906067, -0.2162320762872696, -0.02095874212682247, -0.40504831075668335, 0.2854906916618347, -0.35491713881492615, 0.17328116297721863, 0.17273661494255066, 0.10826391726732254, -0.39788222312927246, -0.07074461877346039, -0.10122941434383392, -0.10417374968528748, -0.08509894460439682, -0.2536427974700928, -0.03912700340151787, -0.1143190935254097, -0.1439388543367386, -0.26600855588912964, 0.2455320507287979, 0.2280682623386383, -0.1245202049612999, -0.16762176156044006, -0.30538520216941833, 0.7939802408218384, 0.1307443231344223, 0.042674534022808075, -0.08608631044626236, 0.12814858555793762, 0.38494715094566345, 0.1618628203868866, -0.26403144001960754, 0.21151839196681976, -0.05905114486813545, 0.05227179080247879, 0.05751393735408783, -0.2705998718738556, -0.07688812166452408, 0.14108772575855255, 0.4890751540660858, 0.20957006514072418, 0.330830842256546, 0.0267128087580204, -0.11818425357341766], [-0.14165855944156647, -0.28032582998275757, -0.17144590616226196, 0.22056792676448822, 0.1489608883857727, 0.11984371393918991, 0.2183215171098709, -0.16790562868118286, -0.12631163001060486, 0.09562409669160843, -0.31401965022087097, -0.05815443769097328, -0.01236616913229227, -0.16830876469612122, -0.2537032663822174, 0.16144932806491852, -0.23790167272090912, -0.2870386242866516, -0.019401347264647484, -0.687588095664978, -0.25027740001678467, 0.07008601725101471, 0.07440430670976639, 0.06326046586036682, 0.12417484819889069, 0.002251703990623355, 0.2350585013628006, 0.2113591730594635, -0.06157425791025162, 0.15160048007965088, -0.08312345296144485, -0.17145349085330963, -0.08429233729839325, -0.05043093487620354, 0.1671750247478485, -0.04803775995969772, -0.25135326385498047, -0.022940166294574738, 0.4840594530105591, -0.16429953277111053, -0.09198455512523651, 0.11101444810628891, -0.2284115105867386, -0.22129173576831818, 0.0913999006152153, 0.06757187098264694, 0.004672077018767595, -0.1488615721464157, 0.23514805734157562, -0.3396790325641632, -0.17160066962242126, -0.32538968324661255, -0.15798251330852509, 0.304788738489151, -0.04346814379096031, 0.15986377000808716, 0.049672286957502365, 0.21432092785835266, 0.1958523839712143, -0.161417156457901, -0.06656049191951752, -0.1984127014875412, 0.20184631645679474, -0.08876145631074905, 0.19257862865924835, 0.21442189812660217, 0.1326025128364563, 0.05296024680137634, 0.23911833763122559, 0.2160935401916504, 0.053302694112062454, -0.08976857364177704, -0.19549351930618286, 0.04969944432377815, 0.02036553993821144, 0.0352490097284317, -0.12760129570960999, 0.06414660066366196, 0.07549796998500824, -0.10324666649103165, -0.06352134793996811, -0.13619089126586914, -0.1287297010421753, -0.05079803243279457, 0.2854294776916504, 0.24583184719085693, -0.1331520974636078, 0.15871301293373108, 0.6644914150238037, 0.22169385850429535, 0.05007781833410263, 0.010288914665579796, -0.136861652135849, 0.24036474525928497, -0.2156192660331726, 0.22696805000305176, 0.16189518570899963, -0.12799769639968872, -0.2271013706922531, 0.06548916548490524, -0.05497490614652634, 0.05196197330951691, -0.039771828800439835, -0.45402050018310547, 0.191771999001503, 0.06881870329380035, 0.22825254499912262, -0.23990705609321594, -0.12580470740795135, -0.15091587603092194, 0.192592591047287, -0.044289473444223404, -0.08386188000440598, -0.32893815636634827, 0.1038421168923378, 0.0059312088415026665, -0.050571952015161514, 0.009866885840892792, 0.07898864150047302, -0.013334075920283794, 0.08804699033498764, -0.0033088289201259613, 0.15819643437862396, 0.28070878982543945, -0.12529076635837555, 0.034557733684778214, -0.36275559663772583, -0.2697676718235016], [0.14235471189022064, 0.4245552718639374, 0.00543279480189085, 0.03973458707332611, -0.08986053615808487, 0.12050282210111618, 0.08288997411727905, 0.00997548270970583, 0.4152770936489105, 0.18671444058418274, 0.09935040771961212, 0.4591420292854309, -0.14695268869400024, -0.5067605376243591, -0.08578355610370636, -0.16878806054592133, -0.1825931966304779, -0.03837674483656883, -0.0400671549141407, 0.2531717121601105, -0.027246074751019478, 0.0005380560178309679, -0.21950457990169525, 0.7045390605926514, 0.09767268598079681, -0.11741040647029877, 0.24420377612113953, -0.08535780012607574, -0.19384923577308655, -0.6279098987579346, -0.05765480175614357, -0.06948189437389374, -0.1625567525625229, 0.12430571019649506, 0.6310098767280579, 0.06297079473733902, -0.04864824190735817, -0.06328780949115753, -0.15447600185871124, -0.1616799682378769, 0.33939534425735474, 0.293878436088562, 0.0803295448422432, -0.029460763558745384, -0.003615903900936246, -0.117320217192173, -0.4071779251098633, -0.16179263591766357, -0.1251348853111267, -0.08684839308261871, 0.114072784781456, 0.7718481421470642, 0.10377281159162521, -0.6026713252067566, -0.044155098497867584, -0.1888517588376999, 0.011409030295908451, -0.08665567636489868, -0.1617804318666458, -0.08050043135881424, -0.6192459464073181, -0.2112896740436554, 0.2991219460964203, 0.13173547387123108, 0.46212470531463623, 0.07575181126594543, 0.0059541985392570496, 0.352449893951416, 0.06737767159938812, 0.30370205640792847, -0.2529418468475342, 0.12177078425884247, -0.2530687749385834, -0.12110582739114761, -0.0001299850846407935, 0.06637173891067505, 0.19929978251457214, -0.15172119438648224, -0.09923164546489716, -0.18160074949264526, -0.5010862350463867, -0.11095953732728958, 0.10843891650438309, 0.04123546555638313, 0.031253427267074585, 0.0661621019244194, 0.29712924361228943, -0.1747187077999115, -0.015864834189414978, 0.012618369422852993, 0.11677221208810806, 0.06522595882415771, 0.37989717721939087, -0.08060836791992188, 0.0932568907737732, 0.008487517014145851, 2.5252870727854315e-07, -0.05627913400530815, -0.14304257929325104, -0.07015247642993927, 0.06719682365655899, 0.11416446417570114, -0.05767885223031044, 0.25241759419441223, -0.35704147815704346, 0.00389097910374403, 0.1620960235595703, -0.2975793480873108, 0.13530321419239044, 0.00563106220215559, -0.025595994666218758, -0.12894687056541443, -0.3636225163936615, 0.45638081431388855, -0.2199208289384842, -0.07377608865499496, -0.07623928040266037, -0.005871746223419905, -0.12929119169712067, 0.23975184559822083, 0.12823690474033356, -0.08431638777256012, 0.6036637425422668, 0.3192530870437622, 0.22704240679740906, -0.2407456636428833, -0.4037698209285736, -0.3369790315628052], [0.2652709484100342, 0.20400016009807587, -0.011311651207506657, -0.2527502179145813, 0.1648946851491928, 0.5084623694419861, -0.32733118534088135, 0.10248643904924393, 0.3098747730255127, -0.11045299470424652, -0.2691047787666321, -0.15997280180454254, 0.11248791217803955, -0.03729357570409775, -0.04582255706191063, 0.24630635976791382, -0.1329914629459381, 0.0250705573707819, -0.4467621147632599, 0.12590251863002777, -0.5312350988388062, -0.30680397152900696, -0.033886514604091644, 0.2233026623725891, -0.10644346475601196, -0.25716525316238403, -0.09215851873159409, -0.12559185922145844, 0.03155610337853432, -0.07687635719776154, 0.251785010099411, 0.14033374190330505, 0.46730658411979675, 0.2649184465408325, -0.20432312786579132, -0.18455976247787476, 0.10274255275726318, 0.3667881488800049, -0.11198117583990097, 0.5088187456130981, -0.09513887017965317, 0.10525010526180267, 0.16248750686645508, 0.25560396909713745, -0.14911767840385437, -0.11824852973222733, 0.07510606944561005, 0.036953721195459366, -0.020509086549282074, 0.30317190289497375, 0.21739304065704346, 0.050192221999168396, 0.19970548152923584, -0.1426357626914978, -0.20097839832305908, -0.39517682790756226, -0.02327815815806389, -0.27777495980262756, -0.3285575807094574, 0.13137029111385345, 0.25002914667129517, 0.2506135106086731, -0.21402552723884583, -0.21245044469833374, 0.19143453240394592, 0.3001590669155121, -0.21775852143764496, -0.1711214929819107, -0.3288487195968628, 0.05617323890328407, 0.26587164402008057, 0.2979627549648285, 0.10980900377035141, 0.145889550447464, -0.20551244914531708, 0.35777756571769714, -0.3403799831867218, 0.08243393152952194, -0.17547792196273804, 0.21389350295066833, 0.0331684835255146, 0.020701410248875618, 0.2662009596824646, 0.1750749796628952, 0.1567254215478897, -0.4055698812007904, -0.503409743309021, -0.18103119730949402, -0.1813453584909439, -0.06138474494218826, 0.4182172417640686, 0.022527223452925682, -0.1223999634385109, -0.31269413232803345, -0.059202421456575394, 0.12120234966278076, -0.08240824192762375, -0.033805619925260544, -0.10389821976423264, 0.10069841891527176, 0.16102705895900726, -0.19181948900222778, -0.3348604440689087, 0.35595157742500305, 0.34836775064468384, -0.1658378392457962, -0.2049202173948288, 0.019096672534942627, 0.19235222041606903, 0.1565844714641571, 0.2382618933916092, -0.2715650796890259, -0.05471920594573021, 0.04502321034669876, 0.5357096195220947, 0.08354748040437698, 0.38438448309898376, 0.6675885915756226, 0.2166426032781601, -0.10266101360321045, 0.02205514721572399, -0.026839248836040497, -0.0968935564160347, -0.04919819161295891, 0.8911396265029907, 0.1869651824235916, -0.05840887874364853, -0.30036938190460205], [0.022120298817753792, -0.0023504856508225203, 0.007870570756494999, 0.0347689725458622, -0.05059250071644783, -0.011076088063418865, 0.04817050322890282, 0.0031292736530303955, -0.01928894780576229, -0.01369482558220625, -0.0023245213087648153, -0.03649476543068886, 0.019688604399561882, 0.016407350078225136, -0.018098775297403336, 0.012699966318905354, -0.0010440474143251777, 0.0002981164143420756, 0.028570212423801422, 0.009283950552344322, -0.011196968145668507, -0.0019902479834854603, 0.01485434453934431, 0.013165491633117199, -0.015058541670441628, 0.0001339216687483713, 0.002877507358789444, 0.006645101588219404, 0.0012231507571414113, 0.018756374716758728, -0.01446294691413641, -0.006666611414402723, 0.025487888604402542, -0.02672101929783821, 0.029388010501861572, -0.0009261358063668013, -0.01089647226035595, -0.035148221999406815, 0.00180058681871742, -0.023121489211916924, -0.014015818014740944, 0.050076570361852646, 0.0028750007040798664, -0.017153747379779816, 0.0457523837685585, 0.01606200821697712, -0.01889660581946373, 0.02861274778842926, -0.00444788159802556, -0.01427723653614521, -0.006567409727722406, -0.026364609599113464, -0.020569108426570892, 0.02804664522409439, -0.02142738550901413, 0.012006727047264576, 0.06365060806274414, -0.025548843666911125, 0.018461553379893303, 0.003907126374542713, -0.01638757437467575, -0.020716862753033638, -0.047202788293361664, 0.003646636614575982, 0.008034086786210537, 0.016267888247966766, 0.011045052669942379, -0.04042165353894234, -0.009100602939724922, -0.012816638685762882, 0.021251549944281578, 0.001689452095888555, -0.01179506815969944, 0.01519298180937767, -0.0683365911245346, 0.014280837960541248, 0.012138232588768005, 0.03681333735585213, -0.023905642330646515, -0.015138287097215652, -0.02311803214251995, 0.04998786002397537, 0.015237821266055107, 0.011400989256799221, -0.000729151361156255, 0.014530731365084648, 0.03789033740758896, -0.009378822520375252, 0.015781190246343613, 0.012849629856646061, -0.0026706994976848364, -0.0005257395678199828, -0.0013494046870619059, -0.06270917505025864, 0.012236458249390125, -0.011440406553447247, -0.024877671152353287, 0.0043253847397863865, -0.01683741994202137, 0.011957183480262756, -0.023083027452230453, -0.008682463318109512, 0.04580278694629669, 0.03020823746919632, -0.018910793587565422, -0.013477190397679806, -0.027481427416205406, -0.04756796360015869, -0.011321830563247204, 0.002922265324741602, -0.04211772605776787, -0.0055382344871759415, -0.00926318671554327, 0.028273331001400948, 0.010754575952887535, 0.0015318170189857483, 0.03763056546449661, 0.006068450398743153, -0.008046239614486694, 0.03735998645424843, 0.0056354026310145855, 0.06591272354125977, 0.04794487729668617, -0.015699218958616257, 0.004510893486440182, 0.041370145976543427, 0.0022051334381103516, -0.007453796453773975], [-0.15172551572322845, -0.5385268330574036, 0.3252374529838562, 0.38258785009384155, -0.13747084140777588, -0.1789691150188446, 0.048946723341941833, -0.48536795377731323, 0.5756369829177856, 0.4662978947162628, -0.05697570741176605, -0.1728077232837677, -0.12934140861034393, -0.18515802919864655, 0.04862048104405403, -0.18063022196292877, -0.150611013174057, 0.030260659754276276, 0.3195960223674774, 0.146795392036438, 0.6413787603378296, 0.4618712067604065, -0.08761201053857803, -0.17242950201034546, 0.406716525554657, 0.04618465527892113, 0.08491984754800797, 0.23273180425167084, -0.3749963045120239, -0.24242274463176727, -0.21290884912014008, -0.5736343860626221, -0.4861181974411011, -0.0881665050983429, 0.1646403968334198, -0.23751777410507202, 0.44242000579833984, -0.5568633079528809, 0.30552032589912415, -0.6026718616485596, 0.14384445548057556, 0.18661166727542877, 0.18572309613227844, -0.32163384556770325, 0.2373334765434265, 0.29027557373046875, 0.5029736757278442, -0.4240443706512451, -0.09540247172117233, 0.12751415371894836, 0.19053222239017487, -0.28386783599853516, -0.16827842593193054, -0.23830372095108032, -0.016858523711562157, 0.3861505091190338, 0.008350509218871593, 0.3389459550380707, 0.447514146566391, -0.43551334738731384, 0.5370932817459106, -0.0893290564417839, 0.0009368584724143147, -0.07394221425056458, -0.14599622786045074, 0.18994057178497314, 0.538171648979187, 0.17069697380065918, 0.4218935966491699, 0.12109948694705963, -0.5673755407333374, -0.3763202726840973, 0.16540467739105225, -0.15287598967552185, 0.2718530297279358, -0.4164595305919647, 0.016098495572805405, -0.26816391944885254, 0.28023433685302734, -0.28530484437942505, 0.18728534877300262, 0.0547475665807724, -0.2316533923149109, -0.413006454706192, -0.20324474573135376, 0.29913538694381714, 0.49121764302253723, 0.2404155433177948, -0.23645150661468506, 0.30723392963409424, -0.08566081523895264, -0.29501569271087646, 0.0723615363240242, 0.43739718198776245, 0.11088365316390991, 0.6468408107757568, -0.003000265918672085, 0.25494325160980225, 0.2552280128002167, -0.35630354285240173, 0.21043111383914948, 0.45011404156684875, 0.5376967191696167, -0.12075178325176239, -0.36672747135162354, 0.2947474718093872, 0.12084480375051498, -0.14014604687690735, -0.48444706201553345, -0.30852508544921875, -0.12424233555793762, 0.3923385739326477, -0.15678605437278748, -0.4376886487007141, -0.6360642313957214, 0.03362685441970825, -0.5526107549667358, -0.6162711381912231, -0.4050746262073517, 0.4114949107170105, 0.16548505425453186, -0.07061094790697098, -0.12667857110500336, -0.015568728558719158, -0.481281042098999, -0.3844081163406372, 0.13266609609127045, 0.45876991748809814], [0.1282893419265747, 0.2635330259799957, 0.1067349761724472, 0.12504054605960846, 0.2575339078903198, -0.0015080373268574476, 0.22758083045482635, -0.014856915920972824, 0.007002107333391905, -0.4109058082103729, 0.16202564537525177, -0.08153732866048813, -0.03935546055436134, 0.021094001829624176, -0.07049065083265305, 0.1574520617723465, -0.09253363311290741, 0.23180927336215973, -0.4195908010005951, 0.41698727011680603, -0.10338477045297623, 0.18071070313453674, -0.026321426033973694, 0.046000804752111435, 0.17625181376934052, -0.1434953808784485, -0.13166752457618713, 0.17549650371074677, -0.1508043110370636, -0.100240558385849, 0.05943863093852997, -0.04119584336876869, -0.021088525652885437, -0.1344095766544342, -0.20680725574493408, -0.1603977233171463, -0.15081623196601868, -0.1607930213212967, 0.0498393215239048, -0.01071635540574789, 0.07003777474164963, -0.45177486538887024, -0.0553227923810482, 0.005825898144394159, 0.17422623932361603, -0.26712340116500854, 0.17400871217250824, 0.05979577824473381, -0.04813384637236595, 0.3664366900920868, 0.34472355246543884, 0.14194180071353912, 0.09019848704338074, 0.08527038246393204, -0.05972033366560936, 0.14114844799041748, 0.01905273087322712, -0.03262476995587349, 0.02970566228032112, -0.08528811484575272, 0.10339905321598053, 0.09772304445505142, -0.14186087250709534, 0.12047505378723145, 0.11873053014278412, -0.015528620220720768, -0.07367980480194092, -0.09772037714719772, 0.09122679382562637, 0.3634299337863922, -0.12891092896461487, 0.09470053762197495, -0.426350474357605, -0.26523712277412415, -0.07288096100091934, 0.3381185829639435, -0.29711103439331055, 0.13801056146621704, 0.04344240576028824, -0.10038505494594574, 0.05706131458282471, 0.05804908648133278, 0.01060174498707056, -0.00025607130373828113, 0.1705714464187622, 0.04757620394229889, -0.2046348601579666, 0.2030031830072403, 0.05237697809934616, 0.0021074549295008183, 0.22270797193050385, 0.2098657488822937, -0.0019012014381587505, 0.0561443455517292, 0.2345716804265976, -0.2789090871810913, 0.13432271778583527, 0.16501232981681824, -0.285490483045578, -0.15440711379051208, -0.11909868568181992, 0.09739183634519577, 0.07323087751865387, 0.3756173849105835, 0.2030172199010849, -0.13040046393871307, -0.2503659427165985, -0.029066361486911774, -0.03709973767399788, -0.15536148846149445, 0.43977248668670654, -0.02872445248067379, -0.1716965287923813, 0.03053917922079563, 0.014819186180830002, 0.03676064684987068, -0.014204108156263828, -0.1148734837770462, -0.017133556306362152, -0.2927718162536621, -0.23938891291618347, -0.029322810471057892, 0.12586820125579834, 0.15746387839317322, -0.1026666983962059, 0.34020307660102844, 0.248002827167511, -0.2632809579372406], [-0.14030544459819794, 0.14261844754219055, -0.08323145657777786, -0.09489182382822037, 0.1958603709936142, -0.27824607491493225, -0.1193552166223526, 0.15621986985206604, -0.04972945526242256, -0.05652948096394539, 0.36415454745292664, 0.06829285621643066, 0.25502023100852966, -0.23017314076423645, -0.06911450624465942, 0.21523497998714447, -0.30355075001716614, 0.391967236995697, -0.023184189572930336, 0.26558613777160645, -0.24616773426532745, -0.23433858156204224, 0.0026293089613318443, 0.18180051445960999, -0.24449074268341064, -0.017888441681861877, 0.1899133026599884, -0.2077292799949646, 0.01963994838297367, 0.004878896754235029, 0.061900679022073746, 0.01475565880537033, 0.22040557861328125, 0.007017724681645632, -0.09996356070041656, 0.07232023775577545, -0.02281285636126995, 0.270337849855423, -0.17043915390968323, -0.037240054458379745, -0.026529930531978607, 0.10052807629108429, 0.3675013780593872, 0.0033690037671476603, -0.2190258651971817, -0.3236452043056488, 0.2589423656463623, 0.32276251912117004, 0.11426155269145966, 0.29151174426078796, 0.013599456287920475, 0.44343504309654236, 0.1656152456998825, -0.12337325513362885, -0.05195346847176552, -0.2081378549337387, -0.1881641298532486, -0.3660692274570465, -0.3347380459308624, 0.42303305864334106, -0.017678670585155487, 0.20125257968902588, 0.30125048756599426, 0.351117342710495, 0.19076481461524963, -0.13610656559467316, -0.15221351385116577, -0.10150302946567535, -0.08794255554676056, 0.0006140845944173634, -0.005279798526316881, 0.25207972526550293, 0.08936082571744919, 0.05508660897612572, -0.1398995965719223, 0.18022790551185608, -0.2847277522087097, 0.21611186861991882, -0.30863505601882935, 0.11796832084655762, -0.11167792230844498, 0.0325307622551918, 0.3100486695766449, 0.11239216476678848, -0.06521884351968765, -0.18581721186637878, -0.21257814764976501, -0.2696441113948822, -0.04962762072682381, -0.15118268132209778, 0.1812920868396759, -0.23355096578598022, 0.23742370307445526, -0.17784729599952698, 0.2026965320110321, 0.24240855872631073, 0.08344023674726486, 0.04664093628525734, 0.01815689727663994, 0.10648215562105179, -0.10397524386644363, -0.3470875024795532, -0.2774161100387573, 0.4339555501937866, -0.15041156113147736, -0.13293011486530304, -0.17571507394313812, 0.37749168276786804, 0.04807290434837341, 0.3227376341819763, 0.10039084404706955, -0.2591203451156616, 0.18697896599769592, -0.04600197449326515, 0.08565577119588852, 0.3133831322193146, 0.018818674609065056, 0.044653426855802536, 0.1754128485918045, -0.21291041374206543, 0.0999889075756073, 0.18563459813594818, 0.1142633706331253, -0.08038950711488724, -0.2691282033920288, -0.23865929245948792, -0.06488099694252014, -0.30925148725509644], [0.09111054986715317, -0.07848232984542847, -0.16039463877677917, 0.056457072496414185, 0.3309918940067291, 0.10970219224691391, -0.14132028818130493, 0.14382383227348328, 0.2957670986652374, -0.2202107012271881, 0.15606534481048584, -0.05206921696662903, -0.09265980869531631, 0.12021445482969284, -0.199408158659935, 0.10054539889097214, 0.23783186078071594, 0.08294544368982315, -0.5485655069351196, -0.006186471786350012, -0.05404336377978325, 0.04924945533275604, -0.13934604823589325, 0.1052122488617897, -0.036252863705158234, -0.10927855223417282, -0.09874840825796127, -0.025576774030923843, 0.12109190225601196, 0.08960169553756714, 0.11761443316936493, 0.14835621416568756, 0.133993998169899, 0.05088059604167938, 0.07689981907606125, -0.13938990235328674, -0.2032947540283203, -0.06550585478544235, 0.2358720451593399, -0.06393711268901825, -0.2980961501598358, -0.20739319920539856, -0.20231576263904572, 0.4994448125362396, 0.021207138895988464, 0.07207106798887253, -0.16728946566581726, -0.16776084899902344, -0.15275050699710846, -0.07581380754709244, -0.006478007882833481, -0.05968000739812851, 0.1619110405445099, 0.006209429819136858, -0.2954166531562805, -0.058038316667079926, -0.11549387872219086, 0.05552160367369652, 0.16111676394939423, -0.2021356225013733, 0.05668172612786293, 0.049580760300159454, -0.07171103358268738, 0.13113966584205627, -0.2247869074344635, 0.11739635467529297, -0.5425858497619629, -0.023732269182801247, 0.0061851548962295055, 0.020566610619425774, 0.1312052309513092, 0.37492236495018005, 0.3348267674446106, -0.1075027734041214, -0.19640861451625824, 0.49291756749153137, -0.257149338722229, 0.2360115945339203, -0.08133703470230103, 0.19831079244613647, -0.07884091883897781, -0.058389972895383835, 0.08842864632606506, 0.1644929051399231, 0.050071459263563156, -0.011529441922903061, -0.2913311719894409, 0.09748995304107666, 0.21107923984527588, 0.04107636585831642, 0.05558357760310173, -0.28023672103881836, 0.2642902433872223, 0.11080410331487656, 0.0800575390458107, 0.1651695817708969, -0.109525166451931, 0.08806311339139938, -0.1466393619775772, -0.091728575527668, -0.12068033218383789, 0.17170411348342896, 0.14183828234672546, 0.12928757071495056, 0.23923206329345703, 0.18584200739860535, -0.2883496582508087, 0.02639053575694561, 0.07129202038049698, 0.1325991004705429, 0.3389945924282074, -0.10452239960432053, -0.15718530118465424, -0.008317421190440655, -0.05796782299876213, -0.09777659922838211, 0.2305813580751419, 0.0601397380232811, -0.23048549890518188, 0.027293378487229347, 0.08023229986429214, 0.1851627379655838, -0.14754633605480194, -0.18324288725852966, 0.29593268036842346, 0.17416009306907654, -0.06218935549259186, -0.002173918765038252], [0.5041216611862183, -0.1669711172580719, 0.15547475218772888, -0.04653773084282875, 0.0638343095779419, 0.6703901290893555, 0.18429943919181824, 0.12636764347553253, -0.030069388449192047, 0.06796421855688095, -0.35441336035728455, -0.11015890538692474, 0.11063269525766373, 0.06541940569877625, 0.11696697771549225, 0.06145961210131645, -0.32677552103996277, -0.20804746448993683, 0.043913885951042175, -0.19655638933181763, 0.03483080863952637, -0.22746184468269348, 0.0035907679703086615, -0.23388239741325378, -0.2436363250017166, -0.20941758155822754, -0.2280823290348053, 0.026847241446375847, -0.054967913776636124, -0.05329277366399765, 0.09906389564275742, -0.03737309202551842, 0.06530037522315979, 0.5838035941123962, 0.12662480771541595, -0.12570631504058838, -0.019478462636470795, 0.20136034488677979, 0.07707766443490982, 0.13283398747444153, 0.005378470290452242, 0.056699223816394806, -0.23110567033290863, -0.09675466269254684, -0.19110654294490814, 0.07536687701940536, 0.040123023092746735, -0.13085465133190155, -0.025411900132894516, 0.016036471351981163, -0.2288295328617096, 0.010073310695588589, -0.01981557346880436, 0.16468407213687897, 0.0003708672593347728, -0.173893004655838, -0.2542724609375, -0.18948373198509216, -0.19605420529842377, -0.0009910693624988198, -0.08643829822540283, -0.007780932355672121, -0.050522781908512115, -0.2292618602514267, 0.28829365968704224, 0.040278464555740356, -0.0899457260966301, -0.05681392922997475, -0.0793379619717598, 0.04708780720829964, -0.0026489279698580503, 0.10006820410490036, 0.23608136177062988, -0.12271492183208466, -0.10323556512594223, -0.11677763611078262, -0.2354578673839569, 0.18856209516525269, 0.00724475784227252, -0.10387548804283142, 0.08212520182132721, 0.19480477273464203, 0.10432568192481995, -0.25453075766563416, -0.040356528013944626, -0.00405360572040081, 0.0028859274461865425, -0.22979456186294556, 0.5562637448310852, -0.23577308654785156, -0.28655412793159485, -0.022403979673981667, 0.12020357698202133, -0.2084355354309082, -0.40249425172805786, 0.21278440952301025, -0.027890365570783615, -0.24424007534980774, -0.12839505076408386, -0.23160207271575928, -0.19519944489002228, 0.022539200261235237, 0.008533474989235401, 0.202121764421463, -0.023536432534456253, -0.25727224349975586, 0.16360358893871307, -0.12739215791225433, 0.41453325748443604, 0.20332035422325134, -0.0902104452252388, 0.017652858048677444, -0.043892908841371536, -0.22164291143417358, 0.21123650670051575, -0.21838903427124023, 0.195304736495018, 0.4345017969608307, -0.23090031743049622, 0.010681678541004658, 0.05475856363773346, 0.05928036570549011, 0.19847603142261505, 0.098870187997818, 0.8128637671470642, 0.07065825164318085, -0.3937370777130127, -0.19544737040996552], [0.018474316224455833, -0.034793607890605927, -0.0036028691101819277, -0.002901325933635235, 0.0026405639946460724, -0.016261020675301552, -0.0256333164870739, 0.014987137168645859, -0.008948887698352337, 0.03819141164422035, 0.0029948472511023283, 0.017572203651070595, 0.002644146326929331, 0.030204325914382935, -0.018629953265190125, -0.05995842069387436, 0.01351158507168293, -0.01069802138954401, 0.02144257165491581, -0.003245279425755143, -0.006708545610308647, -0.02497953362762928, 0.0596916638314724, -0.004203788936138153, -0.0042644888162612915, -0.01575254648923874, 0.01223344262689352, -0.03668820858001709, -0.028949303552508354, 0.028706256300210953, -0.033810634166002274, 0.03138038143515587, 0.05058727040886879, -0.0023858044296503067, 0.08655963093042374, -0.007533768191933632, 0.012069422751665115, -0.05006464570760727, -0.018718691542744637, 0.03706573322415352, -0.13194984197616577, -0.07390957325696945, 0.023747337982058525, 0.0073139299638569355, -0.022896025329828262, 0.009729348123073578, 0.027393974363803864, 0.07892213016748428, -0.007772359997034073, -0.001647146069444716, 0.01839306205511093, 0.028725309297442436, -0.0584472119808197, 0.010794170200824738, -0.0001705850154394284, 0.01634606532752514, -0.03557789698243141, -0.005555733107030392, -0.037006620317697525, 0.0031783273443579674, 0.045343417674303055, 0.024646921083331108, 0.016225580126047134, 0.0010930070420727134, 0.026009738445281982, -0.006494141183793545, -0.014837265945971012, 0.05507386475801468, 0.03725508227944374, -0.030899178236722946, -0.008856819011271, -0.021431975066661835, -0.00974250677973032, -0.02200847677886486, 0.05389782786369324, 0.007122008129954338, -0.02494581788778305, -0.010467154905200005, -0.0034975651651620865, 0.007622191216796637, -0.10049500316381454, -0.0164002887904644, 0.01767260581254959, 0.008944978937506676, -0.0005638382281176746, -0.07173162698745728, 0.03233873471617699, 0.047647036612033844, -0.01194271445274353, -0.013761459849774837, 0.02324911206960678, 0.010164999403059483, -0.031914547085762024, -0.0484272800385952, 0.0035455201286822557, 0.004015451297163963, 0.019130950793623924, 0.0008048024028539658, -0.008452395908534527, -0.0077407024800777435, 0.05275765433907509, -0.0020081771072000265, 0.056869667023420334, -0.0355539433658123, 0.024488920345902443, 0.03488924354314804, -0.004630367737263441, -0.042826857417821884, 0.003314382629469037, -0.017627358436584473, 0.08279009163379669, 0.040328752249479294, -0.002174666617065668, -0.05914429947733879, -0.00968016218394041, 0.015843858942389488, -0.06565134227275848, 0.003897767048329115, 0.005819727201014757, -0.01686006411910057, -0.029671259224414825, 0.10001569986343384, -0.024295203387737274, 0.010709404945373535, 0.0051564122550189495, -0.052934207022190094, -0.018809005618095398, -0.006016950588673353], [0.010001407004892826, -0.0048200348392128944, -0.007444137241691351, 0.06691517680883408, -0.005807521753013134, -0.017371246591210365, 0.0487641803920269, 0.015696953982114792, -0.09325109422206879, -0.08144833892583847, 0.008265255950391293, -0.06015411391854286, 0.0494670644402504, -0.012429107911884785, -0.030190303921699524, -0.03206716850399971, -0.005668127443641424, -0.02342497557401657, 0.05356420576572418, 0.005549165420234203, 0.014259292744100094, 0.003615094581618905, 0.03425746411085129, 0.04543307423591614, -0.02102736569941044, 0.017363477498292923, 0.01597474329173565, 0.10170364379882812, -0.009332813322544098, -0.038980137556791306, 0.013569510541856289, -0.007186995353549719, 0.0295729823410511, 0.01364060491323471, 0.05198650062084198, 0.018057692795991898, 0.10563316941261292, -0.041426654905080795, -0.014855810441076756, -0.04758860915899277, -0.028094284236431122, 0.00781512912362814, -0.002321158070117235, -0.0533561147749424, 0.06761329621076584, 0.012525731697678566, -0.057165030390024185, 0.07042738795280457, -0.051122285425662994, -0.0036404775455594063, 0.012616190128028393, 0.021463293582201004, -0.0683654248714447, -0.06366408616304398, -0.09851519763469696, -0.007408497389405966, 0.09176832437515259, -0.04334762692451477, -0.07473160326480865, -0.013386624865233898, 0.006139792036265135, -0.02928967960178852, -0.0004974633920937777, 0.013159151189029217, -0.02660997211933136, 0.05024491623044014, 0.03385356068611145, 0.051873087882995605, 0.04423488304018974, -0.08733633160591125, 0.0049709295853972435, -0.013162200339138508, 0.04405844211578369, 0.03987892344594002, 0.001415011938661337, -0.006237789988517761, 0.0388319306075573, 0.1154918372631073, -0.05139601603150368, 0.011495339684188366, 0.08866692334413528, -0.019659550860524178, 0.028299564495682716, -0.0163907241076231, 0.003352360799908638, -0.00026461572269909084, -0.06172143295407295, -0.0365457683801651, 0.006781555246561766, 0.008134324103593826, 0.029217204079031944, 0.06655183434486389, -0.010308299213647842, -0.05118946358561516, 0.02415139228105545, 0.01033454854041338, -0.045008350163698196, -0.007099182810634375, -0.037590593099594116, 0.00011041176185244694, 0.0051932805217802525, -0.04767952114343643, 0.1079019159078598, 0.06388009339570999, -0.011893614195287228, 0.0015335463685914874, 0.01065121777355671, 0.005673312582075596, -0.01604984886944294, -0.00956310797482729, -0.058193400502204895, -0.0668540820479393, 0.0006286221323534846, -0.01731359399855137, 0.03923486918210983, -0.030588164925575256, -0.007188823539763689, 0.015656927600502968, 0.0015113364206627011, 0.03365509957075119, -0.007974016480147839, 0.10704834014177322, -0.016641294583678246, 0.06802394241094589, -0.0004374689015094191, 0.04998274892568588, 0.032590895891189575, -0.011431789956986904], [-0.002628965536132455, 0.17916683852672577, -0.030171595513820648, 0.1193191334605217, 0.25728458166122437, -0.2359360009431839, -0.10397682338953018, -0.11052442342042923, 0.37087732553482056, 0.18512468039989471, -0.2804255485534668, 0.19984658062458038, 0.019816195592284203, 0.082482248544693, 0.025748131796717644, 0.03637970611453056, -0.047851622104644775, -0.07376709580421448, -0.0014675548300147057, -0.4162444770336151, -0.04858524724841118, 0.12599937617778778, 0.03223980963230133, -0.07412981986999512, 0.1333928257226944, -0.05734642967581749, -0.10365504771471024, 0.20007739961147308, -0.10175544768571854, 0.013978224247694016, 0.05641219764947891, 0.003380119800567627, 0.005023232661187649, -0.14032208919525146, 0.00575428968295455, 0.0047818757593631744, -0.1484142392873764, -0.07686971873044968, 0.01863904856145382, 0.1975027620792389, -0.16881170868873596, -0.01247448194772005, 0.28020450472831726, -0.06418398767709732, 0.18843664228916168, 0.06345249712467194, -0.7588959336280823, -0.008891892619431019, 0.09820295870304108, 0.0399041622877121, 0.009424163028597832, 0.0037207731511443853, -0.12180159240961075, 0.023585639894008636, -0.24435639381408691, 0.14570267498493195, 0.0974511131644249, -0.008113672025501728, -0.014879334717988968, 0.0680583044886589, -0.1529652178287506, -0.10310035943984985, -0.2728511691093445, -0.20431458950042725, 0.35465121269226074, -0.07618122547864914, -0.08251035958528519, -0.04190041124820709, -0.09830307960510254, 0.09443270415067673, 0.11678498238325119, 0.10091238468885422, -0.08657991141080856, 0.23598067462444305, -0.1115047037601471, 0.06649327278137207, -0.0609191432595253, 0.28702977299690247, 0.10503165423870087, 0.021672770380973816, -0.1307862102985382, -0.13920478522777557, -0.1750093549489975, 0.09417237341403961, -0.08468430489301682, 0.04731902480125427, -0.33564722537994385, 0.1460362821817398, -0.22992028295993805, 0.11306864023208618, -0.16669955849647522, 0.017346132546663284, 0.22158463299274445, -0.010169926099479198, -0.05915185064077377, 0.23047582805156708, -0.1389167457818985, 0.37669801712036133, 0.09005684405565262, 0.1789388209581375, 0.20997101068496704, -0.051872190088033676, -0.008375486359000206, 0.09609716385602951, 0.039149247109889984, -0.03152678534388542, 0.06939377635717392, -0.06740999966859818, -0.09361591190099716, 0.004138377029448748, -0.1061076819896698, -0.11139671504497528, 0.15170347690582275, -0.003540639765560627, 0.18193325400352478, -0.32743993401527405, -0.08103375136852264, 0.25510114431381226, 0.2686557173728943, 0.005005454178899527, -0.049536556005477905, 0.08033346384763718, 0.17325392365455627, -0.08636124432086945, -0.15832307934761047, 0.28512847423553467, -0.40392208099365234, 0.138095885515213], [-0.17409805953502655, -0.11555852741003036, 0.28935396671295166, 0.03291316702961922, 0.14013069868087769, -0.06775366514921188, 0.002250183839350939, -0.32216158509254456, 0.11000759899616241, 0.0049342745915055275, 0.10009169578552246, 0.39257562160491943, -0.0021810922771692276, -0.34736284613609314, 0.01980157569050789, 0.004610566422343254, -0.11023838073015213, -0.04495531693100929, 0.22141218185424805, 0.7573551535606384, 0.27286478877067566, 0.25780460238456726, 0.10962633788585663, 0.22023607790470123, 0.21247051656246185, 0.11737140268087387, -0.07484356313943863, 0.23525437712669373, -0.02937854826450348, 0.15942887961864471, -0.09096302092075348, -0.24373207986354828, -0.2530346214771271, 0.04864923283457756, 0.18882450461387634, -0.08563271909952164, -0.08690290153026581, -0.27294179797172546, -0.24607786536216736, -0.4813251495361328, 0.03638717904686928, 0.2333381623029709, 0.2839282751083374, -0.3453856110572815, 0.1907646209001541, 0.25155457854270935, 0.11772768944501877, 0.11230325698852539, -0.24922561645507812, -0.5106375217437744, 0.4257122874259949, 0.4568464756011963, -0.022538362070918083, 0.18978427350521088, 0.08702857792377472, 0.3173866271972656, 0.08828618377447128, 0.35435575246810913, 0.29678159952163696, -0.14859725534915924, 0.21182939410209656, -0.0323018804192543, 0.29347503185272217, -0.017010733485221863, -0.09065543115139008, 0.10650888830423355, 0.2673864960670471, 0.16961093246936798, 0.13731138408184052, 0.2679119408130646, -0.25471067428588867, -0.28997358679771423, 0.04415736719965935, 0.03645792603492737, -0.24283286929130554, -0.1882917732000351, 0.25230446457862854, -0.08574028313159943, 0.2917870283126831, -0.07650317251682281, -0.09006526321172714, -0.07123647630214691, -0.1641736477613449, -0.11318785697221756, -0.09333155304193497, 0.30973953008651733, 0.005119328387081623, 0.23453767597675323, -0.31366151571273804, 0.3366878032684326, -0.06795071810483932, -0.33270516991615295, 0.2949872314929962, 0.3335587680339813, 0.4170142114162445, 0.0558132566511631, 0.16519908607006073, 0.24862077832221985, -0.023001685738563538, -0.16436517238616943, -0.042333897203207016, 0.41553398966789246, 0.12087849527597427, 0.11564572155475616, 0.08300593495368958, 0.3571968078613281, -0.01860472559928894, 0.4487566351890564, -0.22195835411548615, -0.20144608616828918, -0.031379763036966324, 0.31416139006614685, -0.041376013308763504, 0.05272023752331734, -0.506278932094574, 0.17113038897514343, -0.36601972579956055, -0.5364150404930115, -0.18698476254940033, 0.042328741401433945, 0.3055495321750641, -0.07605980336666107, -0.1066838726401329, -0.004239543806761503, -0.23084330558776855, -0.23363295197486877, 0.21731111407279968, 0.3030608296394348], [0.1786842942237854, 0.034458763897418976, 0.01054622046649456, 0.10900706797838211, -0.02102653682231903, 0.0435689240694046, -0.13083066046237946, -0.0787578672170639, -0.6739615797996521, 0.15496742725372314, -0.34142249822616577, -0.2629319429397583, 0.044389624148607254, 0.008544611744582653, 0.2950362265110016, 0.01438872329890728, -0.566790759563446, -0.16887183487415314, 0.3429715633392334, 0.23055601119995117, -0.0960535854101181, 0.028929157182574272, -0.003860953263938427, -0.07322294265031815, -0.13111092150211334, -0.1670500934123993, 0.10761760175228119, -0.0005426407442428172, 0.09092534333467484, -0.4395712614059448, -0.04565233364701271, 0.08933304250240326, -0.023855866864323616, -0.03967830538749695, -0.28168606758117676, -0.03782205283641815, -0.1026880294084549, -0.06531477719545364, -0.5020289421081543, 0.0003712864127010107, -0.20683027803897858, -0.08896471560001373, 0.11731980741024017, -0.06408043950796127, -0.09546792507171631, -0.19039872288703918, 0.2857726216316223, 0.03071087785065174, 0.09340202808380127, 0.3779859244823456, 0.031410012394189835, 0.21041002869606018, -0.11233736574649811, 0.12758156657218933, -0.2732604146003723, -0.12097032368183136, 0.26299551129341125, 0.16445116698741913, 0.06461543589830399, 0.02387453243136406, -0.47653478384017944, 0.0813744068145752, 0.35973459482192993, -0.19970610737800598, 0.3653751313686371, -0.11047977209091187, -0.10613342374563217, -0.13145869970321655, -0.0283593088388443, -0.09882409870624542, 0.17390190064907074, -0.0846509337425232, 0.10995230823755264, -0.10623778402805328, -0.26265743374824524, -0.13912534713745117, 0.058926962316036224, 0.03534397482872009, 0.15117484331130981, -0.10778851062059402, 0.05223555862903595, 0.005627941805869341, -0.09021759778261185, -0.04969939962029457, 0.1808018982410431, 0.09478917717933655, -0.024490179494023323, 0.1026616096496582, -0.009953401051461697, 0.08747489750385284, 0.03898239508271217, 0.09337066113948822, 0.6400530338287354, 0.1733718067407608, 0.09013641625642776, -0.27762284874916077, 0.23005488514900208, -0.6293139457702637, 0.33824753761291504, 0.11749213933944702, 0.3769296705722809, 0.13249601423740387, 0.10380057245492935, 0.24473267793655396, -0.08054104447364807, 0.015734432265162468, 0.011337051168084145, 0.08197414875030518, 0.07751743495464325, -0.07721950858831406, 0.1497836858034134, 0.012888859026134014, -0.017409516498446465, 0.4210832118988037, 0.03147709742188454, 0.4691191017627716, 0.1463126391172409, -0.007017169147729874, 0.08924995362758636, -0.13259245455265045, -0.12071184813976288, -0.16808681190013885, 0.3008939325809479, -0.14318495988845825, 0.3602052927017212, 0.19601143896579742, -0.08034059405326843, -0.26232144236564636], [-0.03663909435272217, 0.10992299765348434, -0.0625629797577858, -0.13419586420059204, 0.23537136614322662, -0.117231085896492, 0.4529053568840027, 0.0336097814142704, -0.04417187720537186, 0.1638951599597931, 0.3444279730319977, -0.18370278179645538, -0.18761058151721954, 0.184768408536911, 0.05557424947619438, -0.12855221331119537, -0.22664767503738403, 0.13519515097141266, 0.06089503690600395, -0.004642010200768709, 0.03360026329755783, -0.0368051640689373, 0.020948531106114388, -0.16222794353961945, -0.07349167764186859, -0.41720351576805115, -0.1983736753463745, -0.011605490930378437, -0.05827372521162033, -0.25540629029273987, -0.02790437452495098, -0.09609965980052948, 0.02539566159248352, 0.15785568952560425, 0.06989865750074387, -0.16343192756175995, -0.035641860216856, -0.09539396315813065, 0.2484627366065979, -0.17509092390537262, -0.08531487733125687, -0.4615224003791809, -0.07802697271108627, 0.166158527135849, -0.09654882550239563, 0.05678715929389, 0.192360520362854, -0.23827418684959412, -0.2032417207956314, -0.06304390728473663, 0.39906835556030273, -0.5328007936477661, 0.028079714626073837, 0.43183133006095886, -0.0060550859197974205, 0.005172162316739559, 0.15878014266490936, 0.1724715530872345, 0.0521819181740284, -0.020289558917284012, 0.42319563031196594, -0.18143098056316376, -0.08548552542924881, 0.050452277064323425, 0.31499165296554565, -0.2683385908603668, -0.08786091953516006, -0.06623968482017517, -0.18023115396499634, 0.15472133457660675, 0.2228984236717224, 0.07685191929340363, -0.06594561040401459, -0.06938918679952621, -0.2695479989051819, 0.11509524285793304, -0.08500144630670547, 0.09844178706407547, -0.04156987741589546, -0.04772992059588432, 0.5740553736686707, -0.04879872500896454, 0.16137878596782684, 0.1329902559518814, -0.3534013330936432, -0.12545205652713776, 0.01725177839398384, -0.1254117637872696, 0.6199697852134705, -0.023863691836595535, 0.4991367757320404, 0.26070407032966614, -0.46525779366493225, 0.16252566874027252, 0.20428745448589325, -0.11233572661876678, -0.2182423323392868, -0.03713557869195938, -0.26216885447502136, -0.047667454928159714, 0.07756420969963074, -0.026369255036115646, 0.04310008883476257, -0.345259428024292, -0.028723740950226784, 0.14199736714363098, -0.06475529074668884, -0.3038303256034851, 0.39912375807762146, -0.02247047610580921, 0.3909834921360016, -0.0385274738073349, 0.0329565554857254, -0.10700087249279022, -0.060901980847120285, 0.03401687741279602, 0.034766409546136856, -0.11840132623910904, -0.14607395231723785, 0.14591367542743683, -0.1643601804971695, 0.037244997918605804, -0.1506352722644806, 0.3111482858657837, -0.05590088665485382, -0.03263944387435913, -0.3771856725215912, 0.26351529359817505], [-0.11490064859390259, -0.08211733400821686, 0.23405848443508148, -0.06582573801279068, 0.0419277586042881, -0.0163675919175148, -0.2209327071905136, 0.03831343725323677, -0.28557372093200684, -0.036306265741586685, 0.4414263069629669, -0.506313681602478, 0.2230302393436432, -0.004749504383653402, 0.019257182255387306, -0.04414213076233864, -0.12762770056724548, 0.30191510915756226, 0.015930628404021263, -0.14634190499782562, 0.05492321029305458, -0.14080408215522766, -0.13733771443367004, 0.25302183628082275, -0.22496847808361053, 0.1074005737900734, -0.06508354842662811, -0.24000446498394012, -0.10155113786458969, -0.08790373057126999, 0.14734956622123718, 0.07411681860685349, -0.10405721515417099, 0.027375690639019012, -0.07980446517467499, 0.04249865934252739, -0.22320641577243805, 0.11126380413770676, 0.023306850343942642, 0.06012588366866112, 0.02173417992889881, 0.062441542744636536, 0.27631911635398865, 0.10434883087873459, -0.1371506154537201, -0.18849988281726837, -0.08188284933567047, 0.13295558094978333, 0.039452604949474335, 0.20793677866458893, 0.16994811594486237, 0.06458800286054611, 0.14717070758342743, 0.14460675418376923, -0.1256287544965744, -0.06660871207714081, -0.06990600377321243, -0.1350051760673523, -0.022463051602244377, 0.12499116361141205, 0.16970227658748627, 0.22451333701610565, 0.24829289317131042, 0.4509742856025696, 0.19190551340579987, 0.15310661494731903, 0.05008341372013092, -0.11568831652402878, 0.054231103509664536, 0.05512798950076103, 0.02275826223194599, 0.0911124050617218, 0.048237815499305725, 0.026865439489483833, -0.14460182189941406, 0.14949148893356323, -0.12514938414096832, -0.023069901391863823, -0.045930348336696625, 0.008864452131092548, -0.0016668093157932162, 0.11439435929059982, 0.11399217694997787, 0.14036925137043, -0.10254757106304169, -0.035762716084718704, -0.1497681587934494, -0.1298893392086029, -0.39421921968460083, -0.15597659349441528, -0.07944079488515854, -0.06253717094659805, 0.3930482864379883, -0.19000911712646484, 0.3131031394004822, 0.014361667446792126, 0.05485154315829277, 0.11917600780725479, -0.11694200336933136, 0.05399872735142708, 0.0746932402253151, -0.1886875480413437, -0.09565345197916031, 0.14982524514198303, 0.06895524263381958, -0.18318963050842285, -0.22784562408924103, 0.49595803022384644, -0.27257606387138367, 0.027347439900040627, 0.11820144206285477, -0.003364832140505314, 0.03711715340614319, 0.061385300010442734, -0.023237816989421844, 0.3872186243534088, -0.10856381058692932, -0.19315840303897858, -0.13735073804855347, 0.02424897439777851, 0.11413231492042542, 0.04462680220603943, -0.15242180228233337, -0.4854927957057953, -0.33393073081970215, -0.1805180460214615, -0.025802284479141235, -0.07253773510456085], [0.2638000547885895, -0.25782445073127747, 0.24748235940933228, -0.14858366549015045, 0.09468918293714523, 0.3210684061050415, -0.22663480043411255, -0.12737658619880676, -0.04052268713712692, -0.16208654642105103, -0.11911552399396896, -0.2972273528575897, 0.0751028060913086, 0.4677201807498932, 0.14854112267494202, 0.04263791814446449, -0.17020772397518158, -0.14144101738929749, -0.0024167688097804785, -0.4324527084827423, -0.004845412448048592, -0.06081189587712288, 0.16911549866199493, 0.10374931991100311, -0.19030290842056274, 0.36181703209877014, -0.22909802198410034, -0.19198206067085266, -0.2711261808872223, 0.01193366851657629, 0.14972443878650665, -0.0762595534324646, -0.12419736385345459, 0.11807163059711456, -0.05641397461295128, -0.35081326961517334, 0.04871368780732155, -0.175416499376297, 0.22662794589996338, -0.06967011094093323, 0.124901182949543, 0.2906745970249176, -0.0603228360414505, -0.19531621038913727, -0.10243545472621918, -0.03546872362494469, -0.13276685774326324, 0.2001112997531891, -0.43447330594062805, 0.16619636118412018, 0.06533081084489822, -0.2747640907764435, -0.07651544362306595, 0.12097221612930298, 0.13472090661525726, -0.12763017416000366, 0.003809843212366104, -0.16876220703125, -0.049937229603528976, 0.058103643357753754, -0.16015592217445374, -0.13270622491836548, -0.09322424978017807, -0.036974143236875534, -0.08573944121599197, 0.17623093724250793, 0.09598676860332489, -0.06190718710422516, -0.02630516141653061, 0.05544920638203621, -0.23064541816711426, -0.24722297489643097, -0.2539460062980652, -0.2674213647842407, -0.024272870272397995, -0.1331273317337036, 0.10946673899888992, 0.01135526318103075, 0.08499972522258759, -0.1056370735168457, -0.23066841065883636, -0.20691421627998352, -0.06112512946128845, -0.00826487597078085, 0.03376169875264168, -0.02158968895673752, -0.0483735166490078, 0.02784138172864914, 0.0772191509604454, 0.06080438569188118, -0.1953062117099762, -0.22389277815818787, 0.32698631286621094, -0.07276863604784012, -0.28287503123283386, 0.2623912990093231, 0.1264345943927765, -0.24447159469127655, 0.1160024106502533, -0.5513988137245178, 0.16438958048820496, -0.05439832806587219, -0.1004236489534378, 0.16237588226795197, 0.2018379271030426, -0.03658527135848999, -0.09691080451011658, 0.14288030564785004, -0.2500363290309906, -0.06589171290397644, 0.013569883070886135, 0.013999070040881634, -0.17264384031295776, -0.36863264441490173, -0.0073674386367201805, -0.05048820748925209, -0.1740363985300064, -0.00507180392742157, -0.5239232182502747, 0.008176800794899464, 0.03491450101137161, -0.018480297178030014, 0.03229757398366928, 0.07166489958763123, 0.3699183762073517, 0.10591191053390503, 0.02880134992301464, -0.13750800490379333], [0.0331302285194397, -0.002026791451498866, -0.014600632712244987, -0.028215540573000908, -0.11106474697589874, -0.013014709576964378, 0.14475877583026886, -0.029384147375822067, 0.027204765006899834, -0.08118445426225662, -0.03132201358675957, -0.05340167507529259, 0.09278161078691483, 0.07188572734594345, -0.14385733008384705, -0.15815837681293488, -0.015930267050862312, 0.060632653534412384, 0.09335453808307648, 0.048391956835985184, -0.041098419576883316, 0.050671424716711044, 0.20704278349876404, 0.04787715524435043, -0.008378292433917522, -0.2655984163284302, -0.01550808735191822, -0.14194591343402863, 0.03371848911046982, 0.11911699920892715, -0.01829429529607296, 0.14493361115455627, -0.0711364671587944, -0.038863398134708405, 0.01647488959133625, -0.019742002710700035, 0.006135303992778063, 0.03928528353571892, 0.0006018787971697748, -0.03687940910458565, -0.025985589250922203, 0.10744617134332657, 0.03447437658905983, 0.13714104890823364, -0.034524932503700256, -0.004714989103376865, 0.023726889863610268, 0.09846880286931992, -0.0015395263908430934, -0.1129775121808052, -0.11833508312702179, -0.02346147410571575, -0.017986778169870377, 0.048774901777505875, -0.21308206021785736, -0.05069712921977043, -0.025985488668084145, 0.01778281293809414, 0.061362363398075104, -0.033313870429992676, 0.08360986411571503, 0.0008458155789412558, -0.18646851181983948, -0.008519597351551056, 0.11014539748430252, -0.07671158760786057, -0.06978729367256165, 0.14311233162879944, -0.05954023823142052, -0.1369742751121521, 0.017221825197339058, 0.04536813870072365, -0.29957228899002075, -0.002496612025424838, -0.2954375147819519, -0.04916476085782051, 0.15803611278533936, -0.13151051104068756, 0.032790083438158035, -0.05865636467933655, 0.07558105885982513, 0.10466453433036804, 0.11084703356027603, -0.08470246195793152, -0.0010578407673165202, 0.022365830838680267, 0.13663887977600098, 0.00035375021980144083, -0.01005328819155693, -0.029295383021235466, 0.03644385561347008, -0.09624966233968735, 0.08616150170564651, -0.0465877540409565, -0.08499220013618469, 0.03877592831850052, -0.08841343224048615, 0.014917613007128239, -0.15805798768997192, 0.026864107698202133, 0.2058592140674591, 0.061490047723054886, 0.11916188150644302, -0.11603675037622452, 0.12290351837873459, 0.11667075753211975, -0.0633922666311264, -0.1800834834575653, 0.01924251765012741, -0.02154838852584362, -0.04378863796591759, 0.048956338316202164, -0.022177133709192276, 0.05657694861292839, 0.012029794976115227, 0.03540889173746109, 0.05913237854838371, 0.04293854907155037, -0.017468474805355072, -0.08171401917934418, 0.055300273001194, 0.17722943425178528, 0.20185528695583344, -0.2088569849729538, 0.02573036029934883, -0.07856383174657822, 0.047900475561618805, 0.012206052429974079], [-0.0026613434311002493, 0.08549562841653824, 0.009569724090397358, -0.3578331470489502, 0.08964843302965164, 0.3508140444755554, 0.25719359517097473, 0.3723691999912262, 0.059065841138362885, -0.17277802526950836, -0.078484907746315, 0.40853020548820496, -0.012798811309039593, -0.038439199328422546, 0.16651450097560883, 0.19980916380882263, -0.06839334964752197, 0.07308746874332428, -0.263374388217926, 0.2604937255382538, -0.3961009085178375, -0.3448195457458496, -0.024485038593411446, -0.0866931900382042, -0.44496771693229675, -0.18448033928871155, 0.16693593561649323, -0.23999838531017303, 0.04748803377151489, 0.07892969995737076, 0.1762816160917282, 0.21620257198810577, 0.3551061451435089, 0.18443669378757477, 0.008285095915198326, -0.07350178062915802, -0.1499159336090088, 0.3960597515106201, -0.061870548874139786, 0.5023564100265503, -0.14866217970848083, -0.3658822476863861, -0.06669837981462479, 0.19122810661792755, -0.4048439562320709, -0.24381278455257416, 0.11866479367017746, 0.02296995371580124, 0.17703118920326233, -0.13923537731170654, 0.009125012904405594, -0.07749594748020172, 0.3689066469669342, 0.10609479248523712, -0.1947045773267746, -0.23366616666316986, 0.10960222780704498, -0.2836672067642212, -0.534283459186554, 0.1256718784570694, 0.05114474520087242, 0.04886484518647194, -0.03238625079393387, -0.015293141826987267, 0.12928999960422516, 0.07794319093227386, -0.06815171241760254, -0.15972328186035156, -0.4948852062225342, 0.072171650826931, 0.34296804666519165, 0.4137309491634369, -0.07721544057130814, -0.07304960489273071, -0.19607047736644745, 0.14326629042625427, -0.07525013387203217, 0.26134052872657776, -0.5177029967308044, 0.20663568377494812, 0.21220995485782623, -0.16790978610515594, 0.4235551357269287, 0.06702651083469391, -0.1825013905763626, -0.4328325390815735, -0.2666931450366974, -0.34955692291259766, 0.22798468172550201, -0.2759837508201599, 0.41573137044906616, 0.028463568538427353, -0.2661252021789551, -0.26806947588920593, -0.13071100413799286, -0.26674288511276245, -0.16559405624866486, 0.2920534610748291, -0.0035412502475082874, 0.08192693442106247, 0.019932275637984276, -0.20549091696739197, -0.45237821340560913, 0.16230018436908722, 0.22133755683898926, -0.4976019561290741, -0.12143756449222565, -0.11871939152479172, -0.06276524811983109, 0.25064924359321594, 0.3716636896133423, -0.4278152585029602, -0.1404556930065155, 0.16981692612171173, 0.4963829219341278, 0.016124878078699112, 0.5215049386024475, 0.5464568734169006, -0.0736953616142273, -0.10800883173942566, -0.16715015470981598, 0.12157279253005981, 0.081247977912426, 0.23972326517105103, 1.0109490156173706, 0.2484389990568161, 0.05337091162800789, -0.3416312336921692], [-0.0768795758485794, -0.13015887141227722, -0.012990139424800873, -0.018771342933177948, 0.32376986742019653, 0.11035262793302536, 0.3093031942844391, 0.04019365832209587, -0.43735551834106445, -0.23753739893436432, 0.17572055757045746, 0.26866868138313293, -0.056292708963155746, 0.13875749707221985, -0.15897682309150696, 0.25792431831359863, -0.26107048988342285, 0.007841561920940876, 0.05063840374350548, -0.3152623474597931, 0.22131119668483734, -0.010057997889816761, -0.5569700002670288, 0.1094762533903122, 0.006404318381100893, 0.14669105410575867, 0.34708040952682495, 0.11570151150226593, 0.018558358773589134, 0.4757520854473114, 0.09839602559804916, 0.05861358344554901, 0.08247175812721252, 0.09226641058921814, -0.4346833825111389, -0.06629268079996109, -0.19911795854568481, -0.091064453125, -0.4526366889476776, -0.03189515694975853, -0.23254822194576263, -0.6593512296676636, -0.2279728800058365, -0.03549593687057495, -0.05225526541471481, 0.23966148495674133, 0.0057949791662395, 0.42858457565307617, 0.012781614437699318, 0.16292192041873932, -0.4641396403312683, -0.7025543451309204, 0.13740672171115875, 0.21927997469902039, -0.3552318811416626, 0.10922069847583771, -0.012389721348881721, 0.04320744052529335, 0.06839527934789658, 0.06982922554016113, -0.2548253834247589, 0.028613459318876266, -0.09379822760820389, 0.20124979317188263, 0.33226123452186584, 0.25882014632225037, -0.19666679203510284, -0.2625664174556732, -0.02622227743268013, 0.267362117767334, -0.04986301064491272, -0.00338709051720798, 0.026802878826856613, 0.06036374717950821, -0.22611486911773682, 0.4536287784576416, -0.5072662234306335, 0.16784349083900452, -0.03345024958252907, 0.05057838186621666, 0.2398383915424347, -0.1272897720336914, -0.08414588123559952, 0.12608174979686737, -0.21850529313087463, 0.05702904984354973, -0.4234195053577423, 0.0003364651056472212, 0.8456878662109375, 0.10097068548202515, 0.7113462686538696, 0.21500149369239807, -0.2800779342651367, -0.057423971593379974, -0.2841956615447998, -0.4359683096408844, 0.10778660327196121, -0.6993458271026611, 0.14586672186851501, -0.03180232644081116, 0.11288703233003616, 0.03965971618890762, 0.12479058653116226, -0.3926779329776764, 0.38835373520851135, 0.11605744063854218, -0.0013137760106474161, 0.09507579356431961, 0.2903326749801636, 0.16122712194919586, 0.1588231921195984, -0.07097344845533371, -0.20336443185806274, 0.43833255767822266, 0.027330700308084488, 0.28605082631111145, -0.11691521853208542, -0.11344613134860992, -0.16370496153831482, -0.3753044009208679, -0.16857364773750305, 0.2305937558412552, 0.19187402725219727, -0.27180954813957214, 0.4669402837753296, 0.09362584352493286, -0.08174780756235123, 0.06652236729860306], [0.009759612381458282, 0.017124610021710396, -0.015202740207314491, 0.0057537611573934555, 0.00885185319930315, -0.00212249462492764, 0.079122394323349, -0.03650614991784096, -0.008685561828315258, -0.029553987085819244, -0.01536722294986248, -0.0764879509806633, 0.054657354950904846, -0.07418705523014069, -0.0487014576792717, 0.02673240378499031, -0.0023171822540462017, 0.03181328624486923, 0.03371509537100792, 0.003203812288120389, -0.003360537113621831, 0.03160915523767471, 0.03698345646262169, -0.04273656755685806, -0.06905294954776764, 0.010257239453494549, 0.0022830814123153687, 0.028409093618392944, 0.03724619001150131, -0.048751350492239, -0.023125000298023224, -0.05963959917426109, 0.027565179392695427, 0.016449520364403725, 0.08052139729261398, -0.014674384146928787, 0.039174698293209076, 0.03211396187543869, -0.016815314069390297, -0.07597052305936813, 0.0607244111597538, 0.009184419177472591, -0.011146613396704197, 0.015457777306437492, 0.0668179988861084, 0.006846604403108358, -0.00699752988293767, 0.041549619287252426, 0.028112778440117836, -0.017934871837496758, -0.006765775382518768, 0.04350176826119423, -0.02521069161593914, -0.06251969188451767, -0.0675806999206543, -0.023840900510549545, -0.04327947273850441, -0.001343731302767992, -0.050937261432409286, -0.005397755652666092, -0.01722140610218048, -0.052815716713666916, -0.0013391426764428616, -0.00764281302690506, -0.0026974021457135677, 0.028357768431305885, -0.00453066686168313, 0.004843878094106913, 0.038192059844732285, -0.09743279218673706, -0.006993569899350405, 0.017308257520198822, -0.05959009379148483, 0.0003839567070826888, -0.07092373818159103, -0.002335476689040661, 0.08645997196435928, 0.007060184609144926, 0.01923495903611183, 0.001545875333249569, 0.09447481483221054, 0.015807779505848885, 0.046830929815769196, -0.02431643195450306, 0.009601879864931107, -0.07549198716878891, -0.07282178848981857, -0.025950798764824867, -0.0002200022281613201, 0.04335303232073784, 0.011998072266578674, -0.02998598851263523, 0.0201431754976511, 0.0014299695612862706, -0.003832756308838725, 0.010792958550155163, -0.013840751722455025, -0.011918666772544384, -0.0219431109726429, 0.007298181299120188, 0.04461945593357086, -0.020405203104019165, 0.031733930110931396, -0.04764547944068909, 0.0450001135468483, 0.06762535870075226, -0.034014035016298294, 0.0881410539150238, -0.010736892931163311, 0.02434084564447403, -0.010848301462829113, -0.019356699660420418, -0.010264309123158455, 0.06166871637105942, 0.022894632071256638, -0.052677057683467865, 0.0457274504005909, 0.012327332980930805, -0.009114730171859264, -0.06383204460144043, -0.02399318479001522, 0.003305305726826191, -0.027212021872401237, 0.07073365896940231, -0.012751681730151176, 